8.503131333746050124e-01 8.598468769017016955e-01 -9.740910903045784108e-01 2.980733309531374484e-02 -4.708613968952524709e-01 3.799169700679453920e-01 8.495820173908842365e-01 -2.858925344099531862e-02 9.755106992863252779e-01 -8.821646332055518291e-01 -7.406460655475275434e-01 -3.509004990147282510e-01 5.587472550636378710e-01 2.736792298292614056e-01 5.290532548708989924e-02 -1.984648841067926384e-01 -2.350713288841595194e-01 -5.866132771925850475e-01 1.734629739422910780e-02 2.599571796286441194e-01 1.880731143764373947e-01 -2.365669623956136725e-01 -1.943188622466383297e-01 -3.844051725091793270e-01 1.184775652709875837e+00 5.405522110099589828e-01 -7.829692958997652719e-01 -1.066151906949668604e-01 -5.508451355437347235e-02 7.306227956274498059e-01
1.104087797065314291e-01 8.595057306320103008e-01 8.066627724166580693e-01 -4.193931021300926765e-01 -1.006845159772059795e+00 -8.219240670566730911e-01 3.467797138418393654e-01 6.588919462952628203e-01 2.622421727521074067e-02 -1.089819917017280232e-01 -6.934682247272407896e-01 1.349696130715926090e-01 9.795306460479219490e-01 6.826055111327786751e-01 6.546955138724528389e-01 5.003777251329591946e-01 -8.746224275398186698e-01 -5.157690012220154108e-01 -9.726728481071208465e-01 1.762084107585825121e-01 2.115645332371944021e-01 6.691548897824157738e-01 -2.754224045021541611e-01 -6.009819802318735471e-01 6.937295069937253478e-03 -7.063180402364761523e-01 -5.750267801584062477e-01 3.663533114814909730e-01 3.943285798370324002e-01 -2.918829971425845327e-01
-2.160384640172315074e-01 2.320105256465432031e-01 8.077002330523016527e-01 4.309073427825452218e-01 -7.307795363967396485e-01 4.092179370485490852e-01 -2.751089123170993300e-01 -3.039178286823976394e-01 -6.027704601431264075e-01 5.881524817860005472e-01 -6.220046995137671342e-01 -1.752775760893358070e-01 6.990762273251982517e-01 1.359395272719877423e-01 6.908367517689388837e-01 1.684368515637684749e-01 6.589575968087819646e-01 -7.409825825704882130e-01 6.520222888974083753e-02 6.533966402274680174e-01 -1.779591536424604825e-01 6.871991891579241063e-01 9.783171301828598176e-01 -6.899037420921300123e-01 1.028508029322357187e+00 -5.072778028778378578e-01 9.582656934020029604e-01 8.276251247431710700e-01 4.763507993056124157e-01 6.050908714653191467e-01
1.474986777549391614e-01 4.806454763920958162e-01 5.504292816125536669e-01 -7.759874513427323928e-01 -8.707263730867288443e-01 -4.566884041452830556e-01 4.722820856995407768e-01 -6.831566001812031663e-01 1.043027814973429279e-01 3.702944689611998297e-01 9.059474402734539744e-01 4.363709145160132308e-01 -6.255006491938521762e-01 -2.805113158438916204e-02 8.514547930136757703e-01 4.166116564743043149e-01 -8.393894954196290392e-01 -9.169658079586379129e-01 -7.543674809674542070e-01 3.679298893407054183e-01 -1.605691161792266106e-02 3.103628365366854162e-03 8.191764765013431759e-01 6.739266208916655509e-02 -5.259089927360638406e-01 -4.375830700076232538e-01 3.428561877914075295e-01 8.881849628710999367e-01 -8.590501767294935753e-01 2.540031139126999182e-01
5.879700099013192016e-01 -1.649006670890023341e-01 1.543132486777408496e-01 -5.643997582890351028e-01 6.094076707735817111e-01 3.511340095527474836e-01 -2.653122218601594584e-01 -4.131161352043506985e-01 -9.475750511989436964e-01 -6.677825964074947107e-01 1.065411315032945838e+00 -2.830280399817030612e-01 -6.634588706371082889e-01 9.108478103419832828e-02 5.678738602018991166e-01 9.072412032802650017e-02 5.258207557835783419e-01 7.622120430663993362e-01 -9.326095904618546539e-01 -5.901388014223740708e-01 3.292333262259222182e-01 1.030250930155352407e+00 6.112700325890476627e-01 -6.887529214758606466e-01 1.121490644826623972e+00 -8.623944226663069479e-01 -3.975060588953803209e-01 -5.615818106286046829e-01 6.751156237886579703e-01 -8.777184722156747831e-01
-3.784459092925432366e-01 -4.390831072162422744e-01 8.647987909817927976e-01 1.718891037224291041e-01 6.528181073648470223e-01 -8.123186502594904601e-01 -1.258059568490933755e-02 -6.319660450629210890e-01 -2.236042239000951004e-01 1.075917403422068791e-01 1.050229348126366480e+00 6.897881987327895148e-01 -1.516996982281350881e-01 4.329617748202404526e-01 -2.670549439698765570e-01 -1.589171230830404430e-02 -4.425616284798740141e-01 4.451867299539186695e-01 -4.063954669521408491e-01 -7.584862327598216325e-01 -6.707359574631205357e-01 1.234572882990714049e-01 -8.400706776284705413e-01 -3.062389896728561975e-02 -5.992759632275681536e-01 -6.948501938348132789e-01 -3.509297140977368223e-01 6.429525135011687764e-02 4.642300166680678186e-02 4.299612653092599879e-01
7.744340871005106486e-01 4.398481529911296012e-02 -7.180429005820578026e-02 6.694282063523168125e-01 -2.436546732410407035e-01 9.501399399334428120e-01 -4.001051231485812654e-01 -2.847057808157312797e-01 1.488393587699419207e-01 -3.815279224085212362e-01 -2.712666359158364404e-01 8.322913702314672924e-02 -6.657032188004083882e-03 8.517655408158524011e-02 8.157578659118278619e-01 -4.354139328761787997e-01 1.829604739427231619e-01 -5.755188525148927647e-01 3.403087088757694167e-01 5.921253404794746267e-01 3.113243158473746885e-01 4.003944032385648444e-01 7.497188536873480302e-01 -1.470742978689672242e-01 -6.303477353566142583e-01 8.488500117795825251e-01 9.782098772580755108e-01 4.203307533936247176e-02 -4.825906685362680859e-01 -4.899083579358398111e-01
-1.047824274201089922e+00 1.069726419987656385e+00 9.529556619044968757e-01 4.671843571614583968e-01 4.585724999140906033e-01 -2.533110463760746001e-01 1.907729548885805371e-01 8.223881815812029705e-01 4.312761828181362334e-01 -4.208655688372280879e-01 8.302408745324028061e-01 6.447803351031312635e-01 4.190442082564577175e-01 -4.919187829133252199e-02 7.469272782817544254e-01 6.647659149205656925e-01 1.145302734180368431e-01 -1.953949161110123955e-01 -3.947310016218841811e-01 -7.075542721211740549e-01 -1.010731394105630843e+00 5.496983256482064206e-01 9.557639286519231669e-01 -2.229264636941227506e-01 1.185901678406156678e+00 -9.323420960015811332e-01 7.399021434574025724e-01 -6.105884016844865814e-01 -8.406226046987210765e-01 8.900682131426016497e-01
3.486094398285904394e-01 -2.485006347384823358e-02 -2.706956048590815692e-02 4.329765036144113677e-01 2.933004316791982258e-01 -8.446502977302959847e-01 -1.213298812771222701e-02 -5.022104668461693233e-01 -6.595557073288692562e-01 2.915157513046269869e-02 1.182337473768017705e-01 9.710908802794330219e-01 4.171572115373888279e-01 6.076839840329468778e-01 -2.487413407238378282e-01 5.105746155302764988e-01 8.536666672623962615e-01 9.069090006396000048e-01 1.745268808737115984e-01 8.077237174769844597e-01 -1.114514430979421516e-01 -5.340806878966024573e-01 8.456516290368056854e-01 -2.912101168850298599e-02 -6.923920490204947542e-02 4.055189772724313024e-01 2.885475785251607195e-01 -7.369710095555540574e-01 -8.505130175198025722e-01 -7.099410402221295602e-01
-1.844817887338574269e-01 -5.734324501365272164e-01 4.822006698035483097e-01 -4.222458529945968819e-02 -6.742740646327224363e-01 -9.656674051690085081e-01 6.380078007383319649e-01 -1.275627212414436884e-01 -3.582291669560142000e-01 6.724756627678417642e-01 8.094934288587776194e-01 4.708463578577575803e-01 4.082267102991831154e-01 -6.884646972312269408e-01 4.305235312818760929e-01 -4.599681900856761319e-01 9.606769116714080070e-01 -3.829402060188571988e-01 7.848359180438760907e-01 -8.598135945392821888e-01 -9.235211336734200360e-01 -3.024504740459226793e-01 1.422563507166058894e-01 -9.073584792936689736e-02 8.705599083511690317e-01 8.682792178815941231e-01 2.875030364751552381e-01 -1.006672182738662102e-01 6.774003157951185017e-01 -2.399043182646686811e-01
7.649788241753798790e-01 -2.901749971695287145e-01 6.800364775085178115e-01 -6.603594583217718972e-01 6.413602933773286940e-01 -8.547418303332267042e-01 7.799854461155987240e-01 8.715547239346675967e-01 -3.566586510216717687e-01 -7.789006467171756265e-01 -7.571137173033675172e-01 -7.199382412975093848e-01 2.257759383387992480e-01 -3.017514644478896946e-01 6.818384403220252299e-01 8.050205551624485534e-02 8.832327662779018707e-02 -2.138025289817754512e-02 -2.832722050450793838e-01 5.099370415054855776e-01 -5.848825649138454930e-01 6.340549090692773060e-01 -2.649180738977609528e-01 8.295350210526996060e-01 -3.633922628183745840e-02 9.049033054308115442e-01 8.771997581719123138e-01 1.323828605765872690e-01 -5.221101224619681958e-01 -5.937914498199559077e-01
8.358001532004506462e-01 5.056471221796298571e-02 4.262876221416789790e-01 3.427692205204901227e-02 -1.627537012746004264e-01 2.265538715413281112e-01 -6.486788601524272613e-01 2.378697095847405185e-01 3.103557308376903578e-01 7.729164416969462603e-02 -2.880143032597448083e-01 4.605843412246616864e-01 3.614050783031445002e-01 2.063299550342601874e-01 5.055888756313484667e-01 7.599556869354148203e-01 1.747751649994857270e-01 -5.820904077662713005e-01 5.631580456372310417e-01 7.764999335348967691e-01 -9.536426609975411361e-01 8.368190006552793658e-01 6.100387774006750252e-01 -6.885050244972189537e-01 -6.184209490231502571e-01 -1.731823006067069459e-01 3.783633184781842185e-01 -6.595921782143631118e-01 -8.145419405739826590e-01 9.631302506376711037e-01
2.521999753765597485e-01 -5.263730854053223496e-01 -8.033333523480729044e-01 -4.397081174215702326e-01 -1.360544881937514883e-01 -2.684801767733417388e-01 6.959035252151908602e-02 -4.223870321272361061e-01 -8.651569161415230136e-01 -3.420516295979615928e-01 3.369323610339451380e-01 -5.060112742687765675e-01 -4.846408259736957325e-01 1.979437745889557065e-01 -1.030424694552037751e-01 -4.907036457242957006e-01 -7.369287797955397235e-01 -4.515013223274012000e-01 -7.239344175284044836e-01 -9.103780614237941826e-01 -8.621496490168204518e-01 6.100775326284266775e-01 -6.789143568703288611e-01 6.403828157504201646e-02 -1.947760807241628866e-01 9.590003815617440530e-01 -6.318122312572668209e-01 6.217583754579957267e-01 -4.187148683555400597e-01 -7.097152486687550166e-01
-8.721158228691010539e-01 7.333773611621469124e-01 8.870999279422796535e-01 -1.032560239007060954e+00 -1.807696227033789016e-01 5.713928196789251901e-01 3.304356207627439090e-01 -6.954228288545506453e-01 2.938844235533985549e-01 6.232572782958372554e-02 6.767022543539900070e-01 -7.231214675762408506e-01 2.053485691637811639e-01 2.697548396562824968e-01 -6.829408354380872570e-01 9.122993248764260654e-01 -3.959102849973951121e-01 8.112596930056904521e-01 2.037075202892748571e-01 6.640788467286212748e-02 7.905324684730693496e-01 7.284598437054796705e-01 8.504211821954466011e-01 -9.754354352595463462e-01 1.053783256034735105e+00 2.629578221915913061e-01 6.956841619044583647e-01 9.493182959750333660e-01 -7.968426260836787289e-01 -1.774446591232917841e-02
3.984222861626943342e-03 -8.050234278758739981e-01 3.475110013184405378e-01 6.834963039032536658e-01 -4.344801974568008873e-01 -5.297414230091654908e-01 7.904652759981328769e-01 1.596991351039123153e-01 4.263274014975476089e-01 -6.114656687964016291e-01 -7.099688679630116184e-01 -3.863079111996044479e-01 -3.167872697478582023e-01 7.330193604353213432e-02 -9.467560288966180015e-02 2.173071533146193612e-01 8.294706939945080126e-01 -1.042956765875766134e+00 -7.746403618652536460e-02 7.038790649947610500e-01 -1.101079464087479226e-01 8.451548721806545483e-02 5.337865541294517513e-01 -1.052567709764800519e+00 1.297487200956591036e-01 -1.718450454805448280e-01 -5.118851851354416782e-01 -4.571308639224605508e-01 4.369276432927069465e-01 4.717422000869730403e-01
7.126239595130623439e-01 -3.301395232764436360e-01 -1.654842402627745568e-01 1.496501706145065280e-01 -3.453717135478138744e-01 1.449980145956567545e-01 -9.417865038747093298e-03 -5.736382529240734440e-01 9.396283048832351215e-01 4.863450836468757310e-01 -2.855851610853604033e-02 -3.442639810478768658e-01 -9.028340924373770005e-01 -3.092253464778963457e-01 7.792639970564658736e-01 1.771380546423684810e-01 -8.351355296305946752e-01 -4.180193401014198895e-01 -7.059068201327568515e-01 1.668774220231969418e-01 -3.239604075582908638e-01 3.219989414844219300e-01 -8.316771840111718550e-01 -5.826218910079951074e-01 8.508248227699199973e-01 1.032140603865688622e+00 -5.662418132639207569e-01 -7.942359750203825675e-01 -7.254854097976197735e-01 -7.783004142782310453e-01
-2.453798883259119268e-01 -3.330416051878981598e-02 2.882217844266484197e-01 5.208916212525770417e-01 -8.328107415584450335e-01 5.741659508133455381e-01 5.300316938841166392e-01 -5.281062976310484380e-01 -2.802926084080176877e-02 -5.459407057009629805e-01 -4.944752212896860732e-01 -1.446131312820895798e-01 -4.245383846269427108e-01 5.260105960727665675e-01 -1.036802397763524021e-03 3.997825742905849467e-01 6.033039035215028711e-01 5.040505572314577520e-01 6.225076882352510443e-01 -3.106915083028458091e-01 -1.392073921326470176e-01 6.270521865536620165e-01 2.212496423321010930e-01 2.095231841752645818e-01 -5.932422430947918990e-01 1.031034489727214410e-03 -3.520562683526867048e-02 -7.264823038056577031e-01 -1.653839175303112655e-02 2.056100695604800022e-01
-5.262022795227159211e-01 9.829171653402719588e-01 -2.448134603641360929e-01 2.255938548699812085e-01 6.938193716681729795e-01 -8.498922097522770835e-01 -5.851819204128138052e-01 -5.807764470613548946e-01 4.638299893541372731e-01 5.290993762229169173e-01 1.038847764929895723e+00 -1.415155434815206503e-01 -6.664775493134420525e-01 3.353629790088217266e-01 8.016666230717843789e-01 2.856856617223908490e-01 6.210185199926658850e-01 7.853287571644699261e-01 -4.926341537466787934e-01 -1.295348011654910425e-01 2.475328529199527228e-01 4.085161839891490732e-01 -4.120780746484127843e-01 -5.700146641968925065e-01 7.702017583147557911e-01 -2.007150440214841292e-01 -8.507196062498944000e-01 -2.512208164613600747e-01 -3.275703876562998662e-01 -2.075260285860485721e-01
-7.575137498253470270e-01 8.943703254541938152e-01 4.555320473484367194e-01 5.881236994207482693e-01 6.699026328838454392e-01 -8.361192872708834711e-01 1.144036188338956039e-01 2.088266155420580028e-01 -2.382652182504877425e-01 7.494470424995108848e-01 -1.189215597017154180e-01 -6.701287351953971738e-01 2.249567628858197554e-01 -3.615917532288828173e-01 6.248317021919480574e-01 9.330985944858959380e-01 1.850115987107885107e-01 -3.525239865189917776e-02 -5.342532374298541997e-01 -1.047695631097725899e+00 -1.465362256361483484e-01 -1.641527644024430577e-01 -5.008235394022004794e-01 -2.314793709942194744e-01 -4.989094293700220284e-01 -6.683546738122574382e-01 -4.963406295879455032e-01 6.603700818917924709e-01 -5.508597015038814160e-01 -4.138305287670018262e-01
-8.648979357487402986e-01 6.704977578015564044e-01 -1.357368308553658365e-01 8.310802659488031319e-01 -6.882263424256896966e-01 2.019524047075678119e-01 4.606966815924831149e-01 7.936867857418866690e-01 -6.649844700621504456e-01 -7.662504204924832640e-01 1.642981279397856369e-03 -4.871986959453586397e-02 -2.858502821851582887e-01 -1.341840262413409868e-01 -1.699801757619399389e-01 9.921739120161368053e-01 -6.515387024860004317e-01 8.015114922998850533e-01 9.707892871251154743e-01 -4.500055873261430972e-01 8.868533027293573623e-01 -7.143947018184431119e-01 2.312299680427672421e-01 4.704519190139500595e-01 -5.058765053995142313e-01 -7.396656641586243364e-01 8.108053750456477582e-01 1.134781816721820435e+00 -2.938881474706456221e-01 3.791676441204159809e-01
-7.408329628333281125e-01 -4.816239422753306187e-01 -5.478008180654002635e-01 4.541831284876940433e-01 5.616962958863176703e-02 -7.855597175495764306e-01 4.791544804641252875e-01 6.323079819918112632e-01 8.418211152653672924e-01 3.065726338124104555e-01 -4.451887366921773448e-01 -5.992963203597024835e-01 6.983211507885198621e-01 -2.388970565847794159e-01 -6.539527599817587245e-01 3.130312476210985739e-01 2.555982672729825156e-01 -6.671157120086854131e-02 -6.098120179673832686e-01 4.518412350414051093e-01 -3.350559124755485008e-01 -1.129026932772694003e-01 -3.562374702903196577e-01 8.295681793903092460e-01 1.188789295425621395e+00 9.253809914976089956e-01 -8.402341547045336645e-01 -5.136012674960787061e-01 1.080533264417097739e+00 2.900605333239574812e-01
-1.999924976000254373e-01 6.415513446095716388e-01 7.426858933538059704e-01 -7.326150071395695074e-01 -1.355510227070578222e-01 2.294429643364980786e-01 8.067286698488586039e-01 4.555257311458529856e-01 -8.140776332571840745e-01 5.227866554069461325e-01 -3.337936141386639854e-01 2.932959647354187877e-02 4.804031396150940103e-02 8.472562251015238743e-01 -6.358844664907373212e-02 -3.823268785307203377e-01 8.249239774325296537e-01 -8.282218252591712071e-01 1.000574560416151115e+00 -1.017933688655678459e+00 -2.511216841207387085e-01 -8.722426011322317319e-01 -6.819022051588352618e-01 6.594768608652935571e-01 5.444385535295170886e-01 1.036617224426564787e+00 -5.779108924638222122e-01 -2.604044569881627247e-01 3.042749844758494415e-01 -3.662681787818397594e-01
-2.857988769064196966e-01 -4.697294648448006593e-01 9.351539683929104008e-02 -9.575932558645138259e-01 3.160465345691864658e-01 -5.105215855078418796e-01 -2.623695370271166838e-01 5.522538013835697202e-01 9.623816650355409008e-01 -3.436758782840358406e-01 -9.141190769983520426e-02 2.284231747592129769e-01 -4.545179663526036640e-01 5.898046323393180135e-01 -6.884863580178869624e-02 -1.048745804728050540e-01 9.774792152148453761e-01 3.679942451457713370e-01 8.866470213420585278e-02 2.494098878309924938e-01 2.093358779465345487e-01 6.963309665686537309e-02 9.803816426240636872e-01 -7.041945350380000024e-01 1.055919019331473141e+00 -1.838292943949381419e-01 -4.281584509604675071e-01 8.568896137080136421e-01 1.586001081266393276e-01 9.167443501127936489e-01
-1.039686981767598217e+00 1.098271218199154742e+00 9.906679813286624059e-01 4.598911404571657196e-05 7.465319837508613832e-01 3.730663881560467021e-01 -5.752830489868353547e-01 -6.769894334557181592e-01 7.321830976369939625e-01 -8.906831443561643580e-01 -4.969886875384444958e-01 -6.777419727261130289e-01 6.037281986926459343e-01 4.805862840351274867e-01 5.330321268308788607e-01 -2.601385104871992704e-01 9.677002499874725050e-01 -3.586160902746853840e-01 5.095074519613157493e-01 6.108020783939704240e-02 -3.328858589678685420e-01 -4.232007055193895417e-01 8.179396278402208953e-01 -1.081745620921858109e+00 5.541649568597943887e-01 -6.172467178689087230e-01 7.420990328113209467e-01 -3.516626607677252325e-01 -8.173060232270719094e-01 -1.171954598871866315e-01
-9.766448890013976758e-01 8.971026144683585946e-01 -7.048837586153490209e-01 -5.080483887473907778e-01 -2.805243177969056392e-03 3.872110858928434207e-01 8.289797347238715419e-01 5.600923801144516156e-01 4.006120576888619333e-01 6.243917556271899594e-01 -1.312794733829514282e-01 2.205829705024749399e-01 2.781803931350848025e-01 4.332933573692206997e-01 2.820703822660354798e-01 -9.053942330283050177e-01 -7.839723433540952691e-01 -1.026858003528737351e+00 7.431016783905414202e-01 1.383309600493766722e-01 -5.415943421166214966e-01 7.212497440054679299e-01 1.105346366336672562e-02 -6.086497508883713659e-01 5.422876187305285534e-01 -3.286935842360325100e-01 -7.839036341822124276e-01 7.987103697962764093e-01 5.967121676486530912e-01 -1.545807392772928224e-01
2.615582197047267576e-01 4.874312211253363780e-01 -5.273557834576813041e-01 7.378365070257323355e-01 -4.251013338971359468e-01 -4.695578075448705868e-01 -4.465616172200577161e-01 6.579200324187569615e-01 -7.687527048177489331e-02 -7.707947053513445335e-01 -4.152556868765786002e-01 -1.727350497025451626e-01 2.199948369434807927e-01 -5.459464568442873311e-01 -6.180630856679554253e-01 5.563394023711237812e-01 5.472920066758355517e-01 2.198911050149060520e-01 1.022981789498498828e-01 6.132076048090338016e-01 3.098292690775704128e-01 5.610997624211633283e-01 1.011793936606878441e+00 -1.319256415806181193e-01 4.276696642656390712e-01 5.630159809180319552e-01 -5.000512719444346610e-01 -6.309282712511931068e-01 9.214246115618336397e-01 7.132823707323328044e-01
6.003201319898072708e-01 -7.333426101882828396e-01 -3.428917483595931848e-01 -6.148767211605613708e-02 1.725522817284038390e-01 6.861385811936254742e-01 9.024868933045983033e-01 6.810977905250109599e-01 2.695792265490505324e-01 -7.488516884845685118e-01 6.825959989481069634e-01 7.100865703380402350e-01 2.383580687018029554e-01 -8.224767973516506903e-01 -6.000961450331048219e-01 6.797093824228183090e-01 1.061544315178705400e+00 -3.124739850511382699e-01 8.020722597069686044e-01 4.380534692933638063e-02 3.390413119575864109e-01 -9.118530312068169330e-01 1.335175912224741135e-01 5.652933381426138437e-01 -6.279873294719822141e-01 2.146599940401956383e-02 -7.154798617665117932e-01 7.952127599664614577e-01 8.554814120048026549e-01 2.000820501890048231e-01
-6.302305395737051175e-01 -7.428946303352575997e-01 8.712494115205390299e-01 -1.201588949074009344e-01 -9.367100393519119939e-01 -1.339735508619644966e-01 -7.274989114097414611e-02 -3.460363327868574701e-01 4.614751412972454836e-01 -2.098000849866001605e-01 3.340499381423230330e-01 8.169179185147669164e-01 7.975277093562131991e-01 -4.425185325597993380e-01 -1.654225283717292438e-01 -6.215609577523933948e-01 -5.806349374548642750e-01 1.059341813152480799e-01 -8.491702950063949595e-01 -4.248990940195854216e-01 -5.089770758144488427e-01 -7.052615700316713365e-01 -6.250241966527425586e-02 -6.629129693208915715e-03 -3.237114349178838585e-02 -5.847851139760489314e-01 -8.167922997765194593e-01 -6.886417707542124012e-01 2.525631279757764580e-01 5.487945243175026272e-02
-4.292644208536919304e-01 4.482542748986588221e-01 1.788342696133624343e-01 -6.047146587035304721e-01 5.918281283158340900e-01 7.178246856050286562e-01 1.770024312526953247e-01 6.735883590717061109e-01 3.197509783455870225e-01 -4.833679540626463766e-01 4.451842353289617304e-02 2.966963412811020606e-01 -9.715239872717940095e-01 -7.702836800292121033e-01 1.026538063906586196e+00 -5.839990255851125189e-01 -1.835633411295869710e-01 5.731865732091426940e-02 4.771735747168366903e-01 -6.603810802223337717e-01 -8.061864069881089501e-01 -7.793403865219317161e-01 -1.182995678895173153e-01 3.516267208350327134e-01 -6.939390046330373707e-01 4.869750749298163428e-01 -6.819846826622549818e-01 5.254420712088286871e-01 8.836328007287193032e-01 6.995884532770848541e-01
-2.466800636073065989e-01 -3.092965154970460095e-01 8.944333156340745772e-01 -9.064624343664670070e-01 -4.479305905574640367e-01 8.183062986440997610e-01 -6.922289029161786678e-01 -1.410914995981480402e-01 -3.882579728910013350e-01 2.592948905471322285e-01 -5.360702375242341056e-01 7.770732118965847368e-01 8.366049180006625008e-01 -6.285269260988193274e-01 1.816627867648423489e-01 1.062440731741559619e+00 5.191258182274711974e-02 -4.006034315173594151e-02 -1.659373145120144333e-01 6.621995443047252738e-01 4.868370705435650647e-01 1.821568330935050828e-01 6.190953728861934291e-01 -5.850813883337061538e-01 9.580714283555942234e-01 8.654154844896055909e-01 1.009758975823311200e+00 -3.518419509732103601e-01 9.249764968112563768e-01 -4.551759325047872173e-01
-5.912434418844454420e-01 -2.027090538389401259e-02 -5.915522235239328852e-01 2.060235935934653928e-01 -4.780661932725454588e-01 -5.114624384068344742e-01 -3.882358593163626193e-01 9.183467747263721614e-01 -2.897125299716180602e-01 -5.744638890065846271e-01 -2.013806695948443526e-01 6.954695394557278698e-01 8.764738716407254326e-01 2.538834508197977957e-01 7.402803873095376019e-01 1.061094474461298232e+00 7.692201756327596840e-01 3.808602005869318741e-01 -9.352961634488449194e-01 3.120507652055214964e-01 -7.731580545861252984e-01 9.253742567077176684e-01 -3.290562642419473938e-01 -8.768666631876473327e-02 1.053350476238128719e+00 1.038567355741999654e+00 1.024753014549964369e+00 1.622920895372844674e-01 -3.077031939032408570e-01 -6.047172540850338507e-01
-6.251425647417263587e-01 7.460492128230039599e-01 -7.826425568357912033e-01 5.953484949728476971e-01 -1.673033030456606285e-01 -3.082177327815823209e-01 3.131611220783540178e-02 -6.804354802131479252e-01 -7.832798526005263495e-01 7.102690055086674503e-01 4.426329642060056746e-01 -1.432602463647614788e-01 -8.906894811070029672e-01 -4.463762355952296534e-01 3.639217049822241479e-01 -3.607322315223624454e-01 -1.819959447547177811e-01 3.045277616275982382e-02 2.925499184616062176e-01 3.418694031231088171e-01 6.079958408275535353e-01 8.696545874823662370e-01 -6.115236117084346112e-01 4.723143372660564832e-01 1.132249030966273162e+00 1.045250545876480697e+00 -5.176041102954066081e-02 8.028474144725631367e-01 -7.494043025289442994e-01 3.674542446426303788e-01
3.349742962929645462e-01 -4.112454190914590496e-02 6.216340925585620569e-01 7.650411384915745128e-01 6.631865078927584589e-01 3.359793902395361020e-01 2.214797373511507780e-02 -5.509914758078550134e-01 4.181808335555765033e-01 -1.710863589023709774e-01 9.007556096752085129e-01 8.915567919209291814e-01 6.353821824624692471e-01 -3.463538508316914566e-01 3.355920802068602105e-01 -3.965871582747517721e-01 -8.938353568275005934e-01 6.877459116919032445e-01 -8.279045124910467957e-01 3.896746762488041971e-01 -8.961222820946806999e-01 1.011035537914327875e+00 -1.016594413511948958e-01 -7.586021239699297647e-01 -3.584894251397442444e-01 -7.132350131689957351e-01 -8.215257571828807892e-01 1.044855865464171529e+00 -1.824183609490250546e-01 -9.303801176711308241e-01
6.441146501712837757e-01 2.643785675594100826e-01 -4.236236809758477384e-01 -4.931057508072977380e-01 -3.748960943964778081e-01 6.027593112023720279e-01 8.926174036890109909e-01 6.665418977938867284e-01 4.509022266789091682e-01 -7.217633796902377386e-01 7.918448833809927923e-01 1.813270668788554141e-01 -6.358158958859594367e-01 5.392493068611833307e-01 -9.474037959168004619e-01 3.237728923803598891e-01 7.963256515927741308e-01 1.820012096273549984e-01 7.342184286074079358e-01 -8.267496409039896132e-01 8.441069205354166938e-01 -4.534125610314010957e-01 2.827721420485627690e-01 1.989477964527723020e-01 4.526949447678775829e-01 4.515302647850056306e-01 8.968951669225012635e-01 3.800613045452094774e-01 -6.203658299336056725e-01 1.831433999517906863e-01
-5.773754950884020243e-01 9.159370518553923146e-01 7.116678003973263278e-02 -1.082138692353323411e-01 8.343635021716741540e-02 -8.371787738293088310e-01 -1.346804105767159532e-01 1.978927205578820403e-01 2.979287735426204564e-02 4.218183529264818987e-01 8.794566149685545398e-01 -9.985893307479741798e-01 -6.456705325180847055e-01 -5.762826792077221372e-01 5.335095055895224814e-01 1.502023911392582067e-01 -8.323437053988287371e-01 -4.014394457232132729e-01 -9.798218052147268375e-01 -3.961861066003660725e-01 -2.242251630901113957e-01 7.386223307348331879e-01 9.171452926680956352e-01 -9.787950806121731295e-01 -1.295135695851097057e-01 7.461842831366987117e-01 -7.927321660176361862e-01 -2.981580640076284539e-01 -3.151571515261748502e-01 8.713076787893174746e-01
2.062760479434620764e-01 -5.077123487698621540e-01 -4.795978063582568840e-01 -1.045729291458880050e+00 -9.598320325290617960e-01 2.816910860146278894e-01 8.938036733040981563e-01 2.083686783542358367e-01 3.917021908124770913e-01 7.238749047345229004e-02 8.535194980883189508e-01 -3.392070242286039927e-01 4.712338178953560108e-01 -5.372931907714447730e-01 -8.110311049055746180e-01 4.069027567397946049e-02 -1.073973669763742117e-01 6.999836664578618084e-01 7.485823836119095409e-01 -3.678051422872324339e-01 3.910567039759796915e-01 8.221028471709301844e-01 -3.447386613456910331e-01 6.102168929162020694e-01 7.361813598866331354e-01 -4.998695340589782710e-01 -8.652795946742984634e-02 -6.292590430490472286e-01 1.002281126100699638e+00 -7.481398915013679485e-01
-7.191509017671353643e-01 9.531223144627199995e-01 -5.109892045282854456e-01 -1.642796315974160981e-01 6.058421500507009672e-01 -3.817529522789492313e-01 -6.295301508056480033e-01 2.652919336814061335e-01 -9.534431012129983563e-01 -4.775799485616005202e-01 1.408811155402716064e-01 2.286161930692080513e-01 4.034801775501756227e-01 5.136138302788819665e-01 1.846233682463731818e-01 4.630924968967030653e-01 7.791913204943020643e-01 -5.378547109129607762e-01 -5.981558650914512443e-01 -6.459496611706421199e-01 5.566565387517573571e-01 -6.309656222453098318e-01 8.848622683907403363e-01 -1.448016568123139114e-01 1.530096276237365716e-01 -9.026256096504667870e-01 -1.935785638955577759e-01 1.782415655160153878e-01 8.404210203009685465e-01 -3.971863637897599664e-01
8.320533830408386455e-01 1.403759631862843693e-01 -5.917894568376157877e-02 5.270195092340154153e-01 -2.454881818308532471e-01 -1.826579284337516151e-01 -3.447851177571534254e-01 2.686263294555449321e-01 4.856634867702676051e-01 4.392842682270388655e-01 6.324664753608370826e-02 -7.933025104303949304e-02 6.497447099649874547e-01 3.485383129594101237e-01 -4.618543072789857429e-01 8.440457720908572936e-01 2.443239985683683113e-01 -6.028502774859550994e-02 5.661669819222779898e-01 -9.764312271476550675e-01 -5.383038370180229792e-01 2.787981913822218383e-01 5.176284615773260045e-01 4.548271105084846777e-01 4.651993618417958887e-01 -2.380086974854067894e-01 -6.931678397027932759e-01 9.101489356668535091e-01 7.986676305218449734e-01 -8.028528066539863950e-01
3.105394575486799535e-01 -2.327127838974087093e-01 6.996380279974335759e-01 8.630266491365599091e-01 -6.748641032361580860e-01 5.520028386112159069e-01 1.694112544170920109e-01 -5.169126769656183784e-01 -3.299700411790530419e-01 6.014086734680692409e-02 3.196007103338867616e-01 4.361931308568486321e-01 -8.428653672193070490e-01 6.434986018960874299e-01 3.581802156144838767e-01 7.117348130635986481e-01 1.655626694957421929e-01 1.906485771937456164e-01 -8.320513441939462185e-01 5.107635415545777047e-01 -6.860246490915609952e-02 7.121356054193886398e-02 4.828986575698411832e-01 -4.020484404867500916e-01 -4.261756829927970669e-01 2.152539619817564753e-01 -1.054328708403967779e-01 2.291434153946560470e-01 1.799910677069182785e-01 5.841294751920218520e-01
-1.391306590376590047e-01 1.033972736466320708e+00 2.511166300539074275e-02 -6.186065459571012948e-01 1.917370675036074446e-01 -5.389129631776826690e-01 -6.679322637915701133e-01 5.642464400802696955e-01 -7.031902354713271963e-01 -7.747468587644674998e-02 5.203736095605226986e-01 -4.246126628063316422e-01 -2.726536422267445900e-02 2.546099357353085457e-01 5.943299493410860723e-01 8.646836901539868281e-01 7.319568900181121496e-01 2.577735877136166365e-01 -7.992939738750631795e-02 -2.810411152500941756e-01 -6.618990632144600150e-01 -8.087009977940842753e-02 -7.670630008705674463e-01 1.696068946640924557e-02 -5.982814172355339910e-02 4.670884552805195100e-01 -1.153033277025535125e-01 -6.917014717966560866e-01 -2.677326493517618866e-01 -5.373901458604634501e-02
-2.201437390623268986e-01 1.105753247220170321e+00 -5.441893867762213066e-01 -3.202784848691023201e-02 1.140279430437592459e-02 -6.852211430592307639e-01 1.726448055368779988e-01 6.676313632552741684e-01 1.162394908563986751e-01 -8.612850135433461896e-01 1.016415083784782292e+00 -3.098153571716246724e-01 1.483316428937025144e-01 -8.578802936276105906e-02 -1.133750140135994927e-01 2.586318937427699582e-01 6.958818575810832296e-01 5.533137184167328249e-01 -2.252811296291668541e-01 3.747818343361640769e-01 -4.054297013607037758e-01 1.991234310675427457e-02 1.978298377618311343e-01 -3.152270360627357770e-01 -6.142601880785893975e-01 -7.861135890322701325e-01 -6.644325484042651331e-01 -7.855903868190180495e-01 9.879748812290939375e-01 -6.560470674991609741e-01
8.359363565817957975e-02 1.739224695397455778e-01 8.370125603109749290e-01 8.246471452111987510e-01 -6.967122994074554931e-01 -3.132704472311185762e-01 -5.886781957842122104e-01 -3.297245333120277788e-01 -5.094937453445191888e-01 -4.864516367609315883e-02 8.218248445811169312e-01 -8.291958379702528414e-02 8.049255138237747242e-02 -5.998493061160609097e-01 -6.868812616259498682e-01 2.234033765719928288e-01 8.651647040649683706e-01 3.437290743127396908e-02 -1.009551060292687708e-01 1.220730516491130152e-01 9.547075457349145644e-01 9.579280539906374070e-01 -7.892864305668596536e-01 -9.361790902166449158e-01 1.165899567224858296e-01 -2.146405918598520424e-01 9.504447209182224562e-03 1.433619227305217014e-01 8.789329306752582394e-01 1.913050597937023325e-02
5.208136619061491945e-01 -3.974781206390669008e-01 -9.449643653042206770e-01 6.986664828393974735e-01 -1.567252490365548812e-01 1.448948887908747540e-01 -8.152600419912677809e-01 6.003552841083040770e-01 1.255215397480082540e-01 7.678944035131495260e-01 8.343687447625356413e-01 -8.177878027807856665e-01 7.632731033217587946e-01 -2.632184876528943507e-01 -9.184715187518439627e-01 1.046903394571887747e+00 4.362817675575847431e-01 8.083817507735269192e-02 4.803515104145684167e-01 -1.088491888833851284e+00 -1.861291822791887041e-01 4.543024080366204753e-01 1.380643156507909211e-02 4.935725490817802208e-01 -3.523869945720452534e-01 2.704262573517839940e-01 3.633679812797649400e-01 -9.553691607798389662e-02 3.231841576523772352e-01 -5.780495666897918910e-02
1.465242056533707371e-01 1.028925079985750335e+00 4.397144262823415861e-01 -7.554883181276945692e-01 -9.169141628170542901e-01 -4.078670784348142342e-01 -1.059716369052604135e+00 9.269633844583194948e-01 -3.035312638275760588e-01 2.885910449551424839e-01 -1.175000842245602917e-01 7.205432825326167912e-01 7.640192124122835438e-01 -1.226613567167816193e-02 -1.193578835781743258e-01 1.051060115348614765e+00 -5.204861819193931094e-01 6.231094976170750144e-01 3.688981477157635136e-01 1.367974842639733402e-01 5.634826463566751098e-01 5.958640008385809317e-01 7.829592363049973081e-01 8.028589580811088533e-01 2.935679474333272587e-01 -5.153249747489877519e-01 3.248689428183284406e-02 -2.392825618164566848e-01 2.794939450639863376e-01 -6.507736549801812487e-01
-1.232396184430305762e-02 2.306413210652895618e-01 4.051621337865256578e-01 -5.072704146399986680e-01 2.733184687048575978e-01 8.960087361454884824e-01 -9.600110445535268988e-02 -6.698152566976492972e-01 -3.953764110471845727e-01 -6.708361469380902387e-01 7.521183512062918908e-01 -1.522961444348789051e-01 -6.802828867018602121e-01 5.215739760765986111e-01 6.256499989780737181e-01 8.057274811105110679e-01 -7.250138082677433371e-02 -7.363539224030768438e-02 -4.095512622350329646e-01 7.013548175805686125e-01 -4.779608191871029949e-02 9.087596374773734276e-01 9.958431419312321342e-01 -5.378817485362630268e-01 -2.884813487879391292e-01 -5.818687900375021371e-01 1.536860463872427585e-01 3.937351410060496715e-02 -4.798180859540453896e-02 -1.041280825916573338e+00
7.685558273721541100e-01 -5.843153650882953326e-02 -5.391252020366966713e-01 -7.821299046085429529e-02 -8.783133535713213425e-01 3.758617757528115999e-01 3.413376221729092497e-01 8.678685553107586825e-01 -6.330126063626145827e-01 -2.709608488282235217e-01 9.462613403089696895e-01 6.332335865128637664e-01 -4.457642282026910707e-02 2.936427385170999327e-01 -1.518870957805966981e-01 -6.031883694539412755e-01 7.485056672413772927e-02 -5.660477770552460042e-01 3.673717780240624564e-01 3.705728083089557812e-01 1.698026273526604679e-01 -6.212404569596909898e-01 -4.774424941609714534e-01 8.832779659484273349e-01 9.198533801429262802e-01 1.107079677716930749e-01 -4.569702531648830446e-01 2.446589898200281499e-01 5.265975239542234343e-01 1.965213371278579785e-02
-5.196595164783381904e-01 6.309172301199193755e-02 -1.172816753053630701e-01 6.642818318899652574e-01 -2.615455960458469217e-02 -1.466024193926585562e-01 9.053390560263026021e-01 -4.850688741798186293e-02 -8.641754060869805132e-01 7.913705699823936346e-01 -5.812018355104382472e-01 4.443568688919178888e-01 9.836712453381010191e-01 -7.298952099301365681e-01 2.144060743818902715e-01 -3.297917708727716168e-01 -9.050097206318102883e-01 1.481680042967535409e-02 2.366922881967488679e-01 -9.671430328024660517e-01 -4.423513577852510870e-01 -8.483289924907657653e-01 1.061679516805275059e-01 -1.043937188477441547e+00 -2.608597504582466642e-01 5.422415803420584934e-01 -6.829057703154480796e-01 9.782703791004112581e-01 1.059848687247928606e-01 -8.419300168082219926e-01
3.401278555544637316e-02 4.518069219014275162e-01 7.422026901007274802e-01 -5.209466358700785005e-01 -2.059768602206662191e-01 -7.295809316301526959e-01 -8.663975293221016782e-01 -9.107441515674644661e-01 -4.379992826970092179e-01 -3.427904563762827483e-01 6.968042128804455837e-01 -5.622277754798169491e-01 -2.178671715789168573e-01 -6.733354482952129683e-01 3.621368977131265154e-01 9.421370184059653097e-01 -5.683473695548207916e-01 9.367676341059448519e-02 -2.979213342592809677e-01 -8.423997057722267812e-01 -8.839434455758449216e-01 6.032996366287042278e-01 5.531854308727321978e-01 -8.061784040243574756e-01 6.914897463388032239e-01 -8.487717761901507618e-01 -5.622188967128912696e-01 1.403540451342259465e-01 7.074737087705558203e-01 -1.420605898638879205e-01
6.195899989807293062e-01 9.882263844425205335e-01 1.740421187129614633e-01 -1.711178020561910512e-02 5.619987321368626887e-01 6.437996194795092553e-01 -8.536404946294234852e-01 -6.020067563208549022e-02 9.711063763720870767e-01 -5.737912274440434279e-01 5.241165859873233579e-01 -1.192202523267733988e-01 -2.382651884757356828e-02 1.562913493570040335e-01 9.267501981988769399e-01 4.732274576629988960e-01 8.875178669304472079e-01 5.633164052586213666e-01 -7.648003399638488853e-01 3.752607122084241076e-01 -3.311937645915256079e-01 -2.521649291284869254e-01 -1.353333538167061922e-01 7.503267598873349931e-01 3.862140788248842327e-01 -4.703115045896352764e-01 1.079188935340466143e-01 -5.809620444339519407e-02 7.436377829034339637e-01 -9.515790153108727445e-01
3.179787686838939642e-01 -3.434778719848040063e-01 -1.844718853357684429e-01 6.489605250846034457e-01 -6.811677054837744771e-01 -1.043928400869230250e-01 -8.179856789080429680e-01 -5.415349432631401116e-01 3.787083861926043848e-01 -5.308231161291693256e-01 1.045102900277955715e+00 -2.809728743584627986e-01 7.615410861878015858e-01 8.099955516133240385e-01 7.213401772124836686e-01 8.614660023292325386e-01 1.040747800669357265e-01 -2.566787793339129764e-01 6.862617892302625977e-01 -7.904747683589741225e-01 -6.358215056184947089e-01 7.361526006972189951e-01 -5.236287036128320915e-01 4.947556122486442276e-01 7.065439603917471612e-01 -3.450083687878564009e-01 -5.664073831725330299e-01 -9.174082065289984600e-02 5.808066601203953905e-01 6.182643475313838177e-01
-3.498523467747549076e-01 -1.230411948731097160e-01 -2.159005977069919646e-01 7.955634260263769741e-01 7.760055487754884407e-01 -5.375671743048502371e-01 2.887090797494942240e-01 8.513303911197868112e-01 1.077640603832202837e-01 -4.182458104728264403e-01 5.448024033719418568e-01 -9.377924770096736362e-02 -2.054198768395214814e-01 -2.566672958496944434e-01 5.986373771880243444e-01 7.854324151079191685e-01 -1.379162119503660466e-01 -8.889215849226078658e-01 -7.417372751121175112e-01 9.633898624787098908e-02 -4.721250473776406609e-01 -4.295142492284153568e-01 2.309580635579088215e-01 -7.620249156361827980e-01 6.991922923535764944e-01 5.260575820374929767e-01 7.225841446757591546e-01 -3.997475541799567211e-01 5.642164951056052313e-01 1.797064534983702222e-01
-9.597160229860624003e-01 1.050853358519079350e+00 8.098915232347859705e-01 -5.165628354309554915e-01 4.483954060234437433e-01 7.799506248532462882e-01 5.822722147332771714e-01 1.531520286251489282e-01 1.003926619946568621e+00 7.264405671256261854e-02 6.766923063672691807e-01 -3.534358412671067540e-01 -9.746608942827841293e-01 2.358850252111702461e-01 9.580855181405940890e-02 6.196279479847933702e-01 -5.127401558949769012e-01 2.232994142731084541e-01 -2.687115544986374283e-01 5.953710693680782651e-01 -1.002203494916429793e+00 8.110198427665271659e-01 -8.454062453060884330e-01 -6.797279466491569222e-01 7.397146647128522989e-01 -5.813787675214239226e-01 -5.599401857816932448e-03 -2.355667271603738844e-01 -7.319292136428920958e-01 5.017730294300883909e-01
6.606993377364103748e-02 -5.432377600162628939e-01 -1.884318996432362281e-01 6.774798217584733218e-01 1.570573066014131769e-01 5.911629080855606011e-01 -9.939835119841710087e-01 7.206377862448932747e-01 6.194703319507536277e-01 4.326773638893968710e-01 7.883269302333262285e-01 -2.619191352666391803e-01 9.308209727613176998e-01 -5.999914125081025063e-01 1.929818045350792655e-01 -5.055238600681535299e-01 9.040658833670123240e-01 2.178648189362787924e-01 -7.187022016904444088e-01 -1.089184155596885972e+00 1.280061945610996565e-01 -7.508855121416504463e-01 -8.816147225962771561e-01 3.855564061083502359e-01 4.470722634937232542e-01 -4.682794328802432626e-01 -8.710351909899020917e-02 8.797412381923136460e-02 1.287878400917253086e-01 8.609561226584190319e-01
-9.894631083695932805e-01 -7.832554784051660723e-01 1.563143521831151725e-02 3.030159308846205879e-01 -2.099401402372125525e-01 6.514550076913322441e-01 -9.580670543268546835e-01 -1.736279104384545469e-01 8.617823391410702749e-01 -3.911864443079293152e-01 -4.148102670239551260e-01 -5.043483722589980900e-01 -7.633474609875201544e-01 8.571438889998737043e-01 -2.831353308118634282e-01 8.499000409755780305e-01 7.181230615130327344e-01 -1.461764432420855075e-01 -6.791722308098585570e-01 9.158265131754134147e-02 3.309382008036055312e-01 7.713493448575678979e-01 3.075863602056878032e-01 -3.909450461634598750e-01 5.304721477209226599e-01 -1.012925894771925239e-02 1.825642983470759928e-01 -8.953940458003645242e-02 -2.459116565473667138e-01 -4.924772939857064435e-01
-1.204081500302583291e-01 -7.950947751447975387e-01 7.035514531985470610e-01 -3.049854973150178949e-01 -5.284615193806111444e-01 5.762480792733345458e-01 4.934643953001981997e-01 9.751249838516041768e-01 -3.100463693528036635e-01 -1.184497151400152465e-01 1.121579465461950836e-01 4.086142265490419478e-01 -4.274463510948068867e-01 8.416229381083473182e-01 7.543308398321397767e-01 -5.622475865956645391e-01 3.975773026538219623e-01 -7.743403040339226218e-01 4.143098488385352218e-01 2.568601113672392203e-02 8.381474173282298379e-01 -4.599089870950085479e-01 9.120839717293222071e-02 -1.062632754547951031e+00 5.379309423680056490e-01 -3.668168915129114693e-01 4.355925819067196225e-01 5.851569239299262426e-01 6.034384649163186953e-01 -8.082892743408012226e-01
-1.028111462013013400e+00 5.558470272223560160e-01 7.852029396851195608e-01 -7.641280753084064292e-01 -3.414146548401282844e-01 3.425990805522178273e-01 -5.017051996828886251e-02 9.489701171943373259e-01 9.272663166386000411e-01 6.702138111148220334e-01 3.394842846415956905e-01 4.359158590672015943e-01 7.648654179491287675e-01 5.965517781472076120e-01 -3.701083865849034704e-01 8.892240732965696060e-01 1.272836743791469216e-01 -5.370730817172909566e-01 1.184484902415935959e-01 3.157023507456437339e-01 7.147533497068930819e-01 8.671399677413820228e-01 5.382396746284741074e-01 -1.764585753875861640e-01 -5.889497500875509051e-01 5.510442466547817997e-01 1.001876000038188108e+00 4.620702345543474809e-01 -8.130863675658712708e-01 -8.192842520297329845e-01
1.836725722193131294e-01 -1.661082370654322904e-01 2.239519155919412474e-01 9.519343918808632898e-02 1.001766760802669937e-01 -1.622734694344774020e-01 -3.911456165621920444e-01 -4.527238759647523314e-01 2.838622621307878569e-01 2.141018756569091630e-01 2.875420435815884690e-01 -3.317333585891551473e-01 1.497504390456315948e-01 2.701578555495908751e-01 -2.849997955622039086e-02 -2.561829424579382675e-01 8.118742240295715451e-01 -8.357054873665552275e-02 -1.706032208359777869e-01 -1.025676486207885318e+00 -5.831646313332500275e-01 -2.514642587656615857e-01 6.203520396778792190e-01 -3.328099176780615065e-01 -7.044146893042597668e-01 1.282625853338023036e-01 -2.576287303677703422e-01 9.786571018183424231e-01 9.375594241606344248e-01 7.041847948968238402e-01
-7.771644330380798049e-01 -5.826226130477752951e-01 -3.785878330150262427e-01 4.206575459772001202e-01 3.134688081091276390e-01 -6.440614313923390677e-01 3.421012432714880536e-01 -2.270241623967571010e-01 4.088904621420606511e-01 4.535753554933193432e-01 -7.180788200622245654e-01 -7.287672923618783161e-01 -2.873701727465419881e-02 6.959339374757962382e-01 3.148843290567860387e-01 -7.329731027271840782e-01 -5.026082719858218084e-01 -2.098735007443734979e-01 -6.478919386726985641e-01 -2.419775824865119662e-01 -4.731762939162295623e-01 -5.524858516888817572e-01 1.389494068650947434e-01 6.241800327855232672e-02 6.261125152577378117e-01 -3.788709215425695720e-01 -5.083829784230583515e-01 6.114484707459441615e-02 9.158305324515074730e-01 -5.772959926815612874e-01
6.016961932949205227e-01 6.706493706144801836e-02 2.070434025224412167e-01 1.861165217135317684e-01 -4.482802782888904436e-01 -6.724289797078276676e-01 -3.753639712696537067e-01 9.609871210586852508e-03 -4.203655673611205734e-01 -1.712890613530020090e-01 1.054357252451966653e+00 4.144902875644955187e-01 -2.006240983202528805e-01 -5.126632885686802643e-01 5.758073158021982663e-02 4.236680643856491901e-01 1.063392678844450323e+00 -1.039783168532295576e+00 9.267014797766345846e-02 -7.137652055744427848e-01 -2.392601593686548012e-01 -2.720843775542324261e-01 -8.124134422830580071e-01 4.769218448265678534e-01 -8.035301977768564974e-02 1.040760845442265881e+00 1.255379588673359026e-01 -1.385834395025032362e-01 1.017955086479461063e-01 3.427413864194675530e-01
-6.739300787058144504e-01 1.033388835366354508e+00 1.715787075441370102e-01 3.295287133645649069e-01 5.313368718329052054e-02 -9.429622012021919852e-01 -4.495771511974511192e-01 -7.678001824809781162e-02 -6.319010196226891862e-01 7.661848826061153916e-01 -3.573966260121876348e-01 -4.724942837729418921e-01 -8.285372578932814758e-01 -6.716861228079451518e-01 -9.351197033154248217e-01 6.036791175922661123e-01 1.057465993756373290e+00 -4.826193641054947192e-01 -9.020797423987416686e-01 -1.085685002984776576e-01 7.362070073097289891e-01 -7.670155010362352810e-01 1.998861823671853055e-01 3.021615288729935234e-01 7.268413264800952511e-01 6.642081192541431367e-01 -5.254823560359135337e-01 -8.236017923307227540e-02 4.719865562615543908e-01 -5.190933596258676674e-01
1.188323653859153645e-01 -3.925666089630264755e-01 -8.713658002973213579e-01 -3.705491572235781739e-01 -7.443164374843403985e-01 -3.518733588449802774e-01 -7.370976002599957666e-02 -5.318400927835394976e-01 -9.607966492140455061e-01 -2.110802235478043479e-02 6.426061057228471540e-01 -4.776584730602976836e-01 -7.312521415162190341e-02 5.056636648781177579e-01 -4.213273326266620683e-02 -1.858903024771175194e-01 -5.253935863207065404e-01 -1.070697251593836080e-01 -5.506816611600379163e-01 -1.032792714282370738e+00 8.762803694935764609e-01 1.061551731989665459e+00 4.935449148613357817e-01 1.390612974031374127e-01 -8.767131375328000853e-02 -8.930646101131092252e-01 -4.409542545408677294e-01 -1.435081208522284157e-01 8.294247161107546340e-01 -7.276763844058367625e-02
-1.117445770443589614e+00 -7.782504808755925652e-01 7.706746460564201096e-01 -8.603420872275262254e-02 -3.284628928589715113e-01 -4.812036780781999146e-01 -5.475668128629685993e-01 2.594185143891264977e-01 -9.844861083548921421e-01 1.091875066080186668e-01 1.004618484177309590e+00 6.551333224651957332e-01 -6.601073200608211788e-01 -4.860475883553741494e-01 2.083301966067456143e-03 1.035680777473790171e+00 8.120574954404489176e-01 -1.016216411523617191e+00 9.766265610026724220e-01 -6.226347144284388735e-01 8.596520041873335627e-01 4.401105453795859379e-01 -6.749580273658750684e-01 3.000517133185692797e-01 6.326859837982652390e-01 -5.877657479969367049e-02 8.657217592363623815e-02 9.644659689141642511e-01 8.794831371237312734e-01 6.764322532957083300e-01
4.108173608998062776e-02 -8.019162136465567414e-01 -4.265924731163346917e-01 5.602776482495481769e-01 7.244187403552904136e-01 -1.486033836635962668e-01 -5.618842801955225008e-01 8.310774113549198594e-01 -9.069539611694411585e-01 -8.392399858635544163e-01 -1.595432703218737647e-01 5.966378402206323761e-01 -5.649649832931963322e-01 1.053190528407843135e-01 -5.717627024933406021e-01 -8.411073659265994040e-01 8.940359607586354507e-01 3.303272479204767964e-01 -5.513884788296895545e-01 -6.581461411507326664e-01 -4.039613419230574931e-01 2.376158494603420601e-01 -8.060824975442637541e-01 -8.861533945102376131e-02 -4.003420149085955559e-01 1.260392044014231696e-05 -7.428307794377154646e-03 5.632268712979343617e-01 2.141375048255444169e-01 8.729108256187321224e-01
3.499200068441055828e-02 5.908737417826220167e-02 4.515673009458412990e-01 -1.425814507368505513e-01 -7.980903921761484110e-01 -3.392657375708466594e-01 2.827007263052721542e-01 5.592357538286359953e-01 -2.274013097051018062e-01 8.784959562646879050e-01 -5.846730979121711469e-02 1.700529506961609150e-01 2.589732795660331655e-01 8.301292588206722611e-02 4.797156891748513563e-02 3.809037240517846312e-01 -3.249107514539005259e-01 9.681486473703436457e-02 9.364282111010727161e-02 -5.253417915917798497e-01 -3.369728834264288514e-02 -6.936686361177901716e-01 3.056705541537443893e-01 7.811106341421961696e-01 5.726077797766491173e-01 -5.788409836605470371e-01 4.038933525513013767e-01 -7.253553490458888309e-01 4.043009274426796473e-01 1.249564241061923986e-01
1.275142754568686920e-01 -7.477944251466787096e-01 -6.180326460019039958e-01 -6.622209112765097272e-01 9.070705838995628545e-01 5.531876886712842056e-01 8.010958815811883849e-01 -2.273585533640960499e-01 6.331318232336574647e-01 1.131632688308798068e-01 8.801815053311664583e-01 -1.037137501752207980e+00 -6.782647535912913472e-01 -4.150134358532520662e-01 -3.338076589213896384e-01 -8.498118535508766280e-01 -1.890973957491536017e-01 -2.755139380475414290e-01 3.142505631369089669e-01 3.580251704411301916e-01 2.323237063343616404e-01 -6.807403930310541584e-01 -1.110949308189518314e-01 4.745139985953279738e-02 7.182963963464090718e-01 -4.858949725191557545e-01 -9.233258233947708726e-01 1.323371494519132718e-01 6.046210426375303593e-01 -4.297275656939267274e-01
-1.061743470686650648e+00 -7.510808022887358604e-01 -1.615098798061141705e-01 -9.758597238996203904e-01 -1.141634135314027222e-02 1.569769726479547101e-01 -6.295168030389990399e-01 -3.120361148502985224e-02 4.557801557794365355e-01 1.821976603365891567e-01 5.551230279507376464e-01 3.633312102711987457e-01 7.248291670536030074e-01 -3.809425370749291995e-01 4.197262593240766448e-01 7.013620466893027983e-01 5.403285019446407711e-01 4.117470947505541545e-01 4.725668594674427292e-02 3.177024288543637831e-01 9.667872432888078293e-01 -7.426012433492809039e-01 3.044281989825101120e-01 -7.744710863345620755e-01 5.748970156260282405e-01 1.061573656134227939e+00 -7.081492896475659604e-01 3.251079867947171964e-01 -6.250052059249704417e-01 -1.531360386283676100e-01
-1.338618644713361616e-01 4.629667987607087865e-01 -1.059897288464753951e+00 -9.294722387928318064e-01 -7.471969300681610138e-01 8.278137890373278296e-01 5.419090853818960829e-01 -6.147591918366029917e-01 2.808921620469240557e-02 -6.847847024806342775e-01 6.188582411245281412e-01 7.802919109845700418e-02 -8.187717031683096058e-01 9.725384533647785101e-01 9.963518055349470659e-01 6.012866735813875430e-01 5.562854531657578372e-01 4.411135094766979736e-01 6.500106049867784286e-01 -1.015143755103821821e+00 7.034211484218247934e-01 3.585971969768042000e-01 1.310996069795661023e-01 -1.230079380210352957e-01 -4.110423513309431343e-01 6.091316468361797076e-01 -7.614306553014656975e-01 -1.233181685978083919e-01 -2.938809498431926293e-01 2.773362167395432981e-02
-8.285147011883389756e-02 -5.476956486815702796e-01 -1.122178149000648550e-01 -2.989844749188654283e-01 2.813200874860750655e-01 -1.052918872374627446e+00 -8.798466023243297629e-01 -1.141414301521034957e+00 6.890774647787973883e-01 5.065271523531381659e-01 9.325376385423866932e-01 3.092829077127797199e-01 -2.796440649656958266e-01 -2.821285286366206901e-01 -3.376948446585980590e-01 -8.917258932922149384e-02 3.555440854647610727e-01 -2.682740952034014525e-01 -8.994994730895040647e-01 7.866904817554100093e-01 -8.730955317686679706e-02 -2.874481633136163894e-01 7.289218658244132065e-01 8.459794469721871879e-01 -7.653471024973153014e-01 -7.278847060428780269e-01 4.443003472028864143e-01 6.795633790244748340e-01 -2.397108085422849366e-01 -2.077430839221084402e-01
5.896542081600039120e-01 9.537179542130160836e-01 -6.514299786439545770e-01 6.234612053889329042e-01 6.689766974883600836e-01 -9.579989957750951746e-01 -2.621649559368091631e-01 -1.183068507379275269e+00 1.420692315606175704e+00 4.316858924793882668e-01 -7.304093501068618099e-01 3.192346034235767419e-03 5.369517648878474603e-01 -6.094239605213439548e-01 -3.767526571374806843e-01 -5.016416491843969094e-01 -4.956739000819333496e-01 -1.003676942693213642e-01 -5.141054972826755165e-01 4.992227687203333319e-01 3.472199940254738770e-01 -2.233362963703077603e-02 6.886343969667390041e-01 -7.936871400737428583e-01 1.121723725194079396e-01 1.007222050995699059e+00 4.301798711899519900e-01 -2.436272443764001538e-01 -5.456399483450370402e-01 7.168769972119848344e-01
-4.207273766866852505e-01 8.903311885544921145e-01 -1.159473386485422308e-01 2.382052609706960256e-01 -8.505606728989042464e-01 -7.348975908596693252e-01 -9.651910978722169632e-02 -3.956320508846826733e-01 -5.995435922600687029e-01 -3.679027543477760842e-01 -4.720276362450930296e-01 -9.859442835848548636e-01 -3.125114062214805477e-01 -5.519458639070419226e-01 6.958945203449981021e-01 2.654531331739060085e-01 1.157041035104367621e+00 6.326128644083665042e-01 -1.010655634452750196e+00 6.647302161162903511e-01 -6.395523987046023429e-01 5.260329785717186013e-01 -1.161747552337066697e-01 -1.117300747367611757e+00 -1.409661281076540484e-01 8.161706609743462071e-01 8.987317405922569113e-01 6.165075680869291919e-01 -5.849779768376784927e-01 -7.880915177040649366e-01
1.003449737475909709e+00 4.409679015335677410e-01 -7.684453479050656899e-01 2.970401113360705558e-01 -2.910937988923608111e-01 -2.597045750444208420e-02 -3.758934232714813417e-01 -6.890632131635685553e-01 8.854755389780020192e-01 1.711574287712211151e-01 2.021640400779056157e-01 -7.020733603963968950e-01 7.584556633815339177e-01 -6.928808711874949733e-01 9.526213418031570512e-01 7.189734330226840164e-01 -1.309760050476400373e-01 3.400749702001859553e-01 5.282628208027631000e-01 -8.364234231773871597e-01 7.336410445317427254e-01 -5.129449195069406553e-01 -3.111110433320548596e-01 4.876946076416794340e-01 9.661377822512576818e-01 2.087740665332002976e-01 8.924128861557162340e-02 -2.638025398471067762e-01 1.045901276371172584e+00 8.432170540743197940e-01
3.033997641191997774e-01 -5.657908831119448645e-02 -5.281303836264703566e-01 -5.198526512029605362e-01 4.345669482327707556e-01 -5.535729255425922979e-01 4.426282754560676991e-01 -7.263644069539779702e-01 1.655632153122248429e-01 -5.119047930305352656e-01 -2.819177048961892806e-01 -6.602087789500427073e-02 3.813012514617875048e-01 -2.163966285525836530e-01 -6.889524728601716941e-01 -1.374766787502235132e-01 9.513233826884245348e-01 -7.500013019241625889e-01 -2.135585423117315751e-01 -3.410679213815874522e-02 8.092656602199862492e-01 -1.039844595735353733e-01 -9.627646032550737920e-02 -1.183528620184689795e-01 3.090795403739935443e-01 -3.140949208528230341e-01 -7.459858424702731083e-01 -3.275982517596361387e-01 -2.893043797976083131e-01 -3.358669867947732257e-01
9.377622269121203002e-01 -5.784446977874558860e-01 -7.231115571433125444e-01 3.261874454869960749e-01 -7.390176514581517919e-01 -5.937098144534243005e-01 -2.519681384203635299e-01 -3.161148830408843091e-01 9.245499459347668036e-01 7.343889276693295054e-01 -9.226537062066394457e-01 -2.220314472683526108e-01 4.364354919752722051e-01 5.403055036475019612e-01 1.212811403051585468e-01 -4.529410477311108796e-01 9.431449752369341910e-01 7.356481075566262406e-02 3.102144000568155535e-01 -1.053943973268545581e-01 5.094762500689958840e-02 1.080845425915333946e+00 -9.248916586722090161e-01 -4.379611103738765832e-01 -6.082516848634785811e-01 6.007039612862114658e-02 5.375960314635844783e-01 -9.360087540757995317e-01 -2.983994825891615049e-02 8.844407595504333308e-02
8.344744776378608675e-01 -1.321666042645673264e-02 5.121025764427133975e-01 1.970597992088950756e-01 8.445432231779895771e-01 1.705715875125821679e-01 -5.051765433152598517e-01 -1.057509885949526440e+00 1.574452905790432178e-01 -8.367011134922878179e-01 2.110547319631466412e-01 -1.466826772771096243e-01 -8.521637118650069453e-01 2.756804046774117278e-01 -9.055917717809421896e-01 -1.785072909765122728e-01 -4.790946648477926728e-01 -3.673242606837802682e-01 -9.630098324568733270e-01 -8.103437425982310538e-01 -4.336948150712319761e-01 -3.007164937180271669e-01 -1.696825822811286882e-02 1.447229151196903763e-01 -2.579619662820924544e-02 6.014859061099900872e-01 -2.284673213154487514e-01 4.582304645208762350e-01 -3.383518566342456624e-01 1.024189646334866088e+00
2.095311805340056011e-01 8.524443499017183568e-01 -9.587988940489384701e-03 -9.000218342160785923e-02 -1.069787391352307271e+00 -4.432382824262172116e-01 -8.199201066626263801e-01 -7.762099433771901813e-01 9.015370838056440198e-03 4.676890236824189917e-01 -3.800806876245647614e-01 -2.054589822654891984e-01 7.017965955973798353e-01 1.692535978477469061e-01 6.948518742222894451e-01 3.553594412171525718e-01 1.128667429176438031e+00 5.269103213069254998e-01 -2.136693032897343456e-02 -7.582948874879538170e-01 -8.394541769106140805e-01 6.851054293454875710e-01 5.724032472854797549e-01 2.998704532859160499e-01 -1.423829160416134054e-01 8.129211755523085836e-01 -9.012955440895009662e-02 6.289802124238413894e-01 8.939984778994288783e-01 6.449330433937824347e-01
8.779336968680399034e-01 6.197188253680132597e-01 -6.618075343931191235e-01 5.448128742039176631e-01 1.586256730738896115e-01 -7.669430019464347215e-01 -9.876633414607052242e-01 3.215898474614009017e-01 5.251737322725998913e-01 1.178400185165680430e-01 7.859287879495446827e-01 5.757075465312748719e-01 4.703782592884248603e-01 -7.606533770617783796e-01 2.159109464858971483e-01 -4.209906042169588858e-01 -3.003037455937914713e-01 -9.289418985042141585e-01 4.008112707128899110e-01 7.478546248700521648e-01 -5.170766846253178617e-01 -8.790623940961148075e-02 -8.607517362447850706e-01 5.460242482317512192e-01 5.210666697651840096e-01 4.638803306093021717e-01 -6.252311244833964610e-01 2.840656956017744705e-01 -2.282543920643687885e-01 8.532253318638077788e-01
-1.986076900915087762e-01 -2.572158412766026303e-01 4.938176783337312470e-01 4.905983752014138055e-01 2.293116387106288456e-01 2.181976566081477997e-01 -1.185331890321293935e-01 1.636063952949619593e-01 -3.916714321541092114e-01 -1.050099070865781609e-01 -5.158895820085857009e-01 7.395260153682511328e-01 1.892207862273025953e-01 -2.840357686609848442e-01 8.340017230388135916e-01 3.427297431780045034e-02 5.608479310973486509e-01 -6.037027557395848731e-01 -6.295896258912540011e-01 7.883714034992727049e-01 9.106105096445932592e-03 8.692065665434384192e-01 4.628748702221843758e-01 -2.432339692873561610e-01 1.143566069676005492e+00 -3.303853889135591748e-01 -3.684929458495919685e-01 1.356503027263055439e-01 7.865919243053354215e-01 5.597765553124240956e-01
5.932421127118123541e-03 1.158593771917850068e+00 1.655954553079085345e-01 4.403365765625328332e-01 -6.606207282498076649e-01 -9.399414166626990363e-01 -6.688122002580094705e-01 9.392311905306828246e-01 -2.114578580672274444e-01 3.282646875953164067e-01 4.613569897814249754e-01 2.522501597615841029e-01 -1.256358295040799766e-01 1.457113962643470650e-01 1.763631989482797036e-01 9.802014972847065133e-01 -1.688214900850894817e-01 7.878045500050189220e-01 1.841271425087394331e-01 -6.226266580780344118e-01 2.984752233408582197e-03 5.727886367542985857e-01 -8.253764528617923979e-02 -6.219967302901092676e-01 7.697331563033602553e-01 3.736473252473291318e-01 1.844783089383838504e-01 -1.852173463908277640e-01 2.123338518030632727e-01 8.093560030813767847e-01
5.349820946853245385e-01 9.541791792002498607e-01 -2.100366265758435436e-02 -2.633050382599673792e-02 -4.997812644118624359e-01 3.698901457136246629e-01 1.761346353963163525e-01 2.522658460677736358e-01 -5.120364271867765271e-02 -2.216279071904229403e-01 1.143081526832088413e+00 1.044534203962048935e-01 -5.864163473982779429e-02 -4.754811700013186065e-02 -5.739413049942642120e-01 -4.293540376026626082e-01 -8.055680812261112322e-01 5.558985478781495182e-01 8.109216064854402051e-01 -7.291688934024063151e-01 3.005872211177322284e-01 1.004524245662672538e-02 -2.108573215822112656e-01 -1.793960241184485993e-01 8.776725414432360317e-01 -8.885335783592336334e-01 -7.535663815455722059e-01 -5.983821418848601636e-01 1.771952114216000240e-01 1.423460621131700243e-01
7.604213359765045477e-02 -3.698968288746117827e-01 -6.314111389326229062e-01 3.440209641514843653e-01 6.200756852366435812e-01 7.635971575283749813e-01 -5.419018099076958750e-01 -4.251705712851125418e-01 -6.816441696990872823e-02 -8.397964068456508224e-01 3.571481550956360773e-01 -4.438427008970523557e-01 1.744458892175050069e-01 6.000028883535445390e-01 -6.745408949576111590e-01 -5.226121962670612353e-01 8.719363092503973345e-01 5.019937942710015477e-01 8.694225372442873079e-01 -2.545035966054665089e-01 -7.578685507178767322e-01 2.297691770776447984e-01 -6.046669991411082190e-01 7.180457041401355767e-01 5.898665620537597576e-01 -7.997445932577162964e-01 4.352015451668647672e-01 -4.228250657899951803e-01 -6.590474476629859524e-01 2.610640421800091704e-01
-4.694099689765101613e-01 3.479766610783650849e-02 2.498018682627380915e-01 3.271141952360619998e-01 -9.808271448366272238e-02 -4.912844927112971355e-02 -6.826578651433312661e-02 -4.869772518175225495e-01 5.340354845139628770e-01 -8.798585377703499466e-01 -9.405065399028625373e-02 -5.504026301416627825e-02 -4.787098046272639795e-01 5.573465360458286222e-01 3.011982344663019506e-01 -1.913103300630022985e-01 2.917467201567752744e-01 -3.935103716445444433e-01 -6.346347810115001709e-01 -6.540375674145777474e-01 4.063225110289487296e-01 -6.057284295077522973e-01 -4.696302781299886431e-01 -5.597992780070676355e-01 8.813794155915002371e-01 -9.443684019800895335e-01 2.513684127822835013e-01 -5.819846746522882031e-01 2.466180285529833982e-01 3.396554202662258048e-01
5.728162903548363882e-01 2.049494976202174967e-01 7.077062365423457679e-01 5.626105592925793042e-01 5.766653467376567921e-01 -1.407311141202848281e-01 2.317736899998364963e-01 7.885495068934050833e-01 -5.781605254175284925e-01 -4.854748706259156416e-02 9.369244404900851642e-01 8.617781359644066663e-01 -2.842253258991505049e-01 -4.932132247898545208e-01 3.104500175810895324e-01 -4.302215200386578786e-01 5.834300691007445749e-01 -1.002618596907904197e-01 2.049119324483953952e-01 5.031226837679503294e-01 7.433699544996209552e-01 7.769846726202833676e-02 -4.860503212059562317e-02 -9.662445457237943680e-01 -6.026199709029742557e-01 -3.152025203688277322e-01 -8.654342009240653111e-01 -1.098008068413688920e-01 -7.153492443456503924e-01 -6.346713097345300092e-01
2.803380173765222527e-01 5.760848902001826088e-01 -4.066923612324641613e-01 6.921656561439312183e-01 5.876173779257120033e-01 6.512659586568139702e-02 -6.450920622969115170e-01 -8.023721668579436583e-01 6.959947827040807722e-01 -8.300648668168589817e-01 1.017815885851168334e+00 5.104514039611886961e-02 7.144483157185346212e-01 -7.316186902068955167e-01 1.778809896207749486e-01 4.337753911161394971e-01 9.706750894150590891e-01 7.488232073452721904e-01 -8.915305968923549207e-01 -9.466345362961159360e-01 7.731878592143249795e-01 -8.095998567003772628e-01 6.288895381850692079e-01 -1.491071833554544479e-01 9.145047040719052056e-01 -1.744105859656727431e-01 6.698382331030737769e-01 -6.687998636563879939e-01 -2.902143112426172067e-01 -7.122930074358999608e-01
-9.523676171338573138e-01 7.377557245798515018e-01 3.838797853986815611e-01 -8.645491961978076789e-01 5.624073511997139674e-01 -2.851043299380052187e-01 7.652796995564522531e-01 3.292881951939782836e-01 -6.152989479441776932e-02 8.394488911435530332e-01 1.055884737909864868e-01 -8.453916888356703963e-01 2.211502112941695353e-01 2.065575187367363064e-01 -6.806108797097309981e-01 -1.391651565857422446e-01 8.022007877119856634e-01 -5.977757187267448424e-01 -7.234514821685192887e-01 -8.133220857013874205e-01 -4.840856883665664578e-01 -7.303984270954728686e-01 -3.295583469691280576e-01 -1.080632076524274510e+00 1.180248256255015393e+00 8.124334676415314593e-01 -2.199570040523980419e-01 -6.741262139953873023e-01 6.454978436661626962e-01 6.046963563284351029e-01
-8.044824034347388686e-01 3.045840223258367563e-01 7.986285388786961148e-01 6.733623776536233896e-01 -1.046322620446839657e+00 -5.920329043864170915e-01 -6.973416400229420775e-01 1.997245352267452145e-01 8.074475633594292434e-01 2.058509282130190632e-01 -2.968157028157820121e-01 4.772962832619659368e-01 3.904730685723031280e-01 2.352960639720205471e-01 1.021590965751444813e+00 -4.428370164401363995e-01 4.694452771385830836e-01 4.666027771055397122e-01 -8.738075407473139267e-01 -5.094695638211124700e-02 8.352395339777628491e-01 -5.318891561882983510e-01 -8.612148313865048976e-01 -3.659347171791872688e-02 8.115727043288594178e-01 4.968774961341683727e-01 9.880323844146700063e-01 -6.316527000773036749e-01 -2.669806506127311296e-01 1.828377195431061253e-01
1.906585972827170850e-01 1.199703256272677265e-01 -8.112195281376798350e-01 1.383150765567487395e-01 -5.113367936434737304e-01 -1.128379206925708561e-01 8.799695194832791723e-01 1.995604478317048944e-02 -4.345473389057780689e-01 -1.936770709935497770e-01 7.402335904461461169e-01 -3.298760247224333253e-01 -7.626388158358514691e-01 7.713647103015730533e-01 8.658203069763779069e-01 -7.070374103320765657e-01 5.878991956666690388e-01 3.217131431372403649e-01 -7.302734326316865365e-01 -6.407191429558954654e-02 -1.016587864063052793e+00 -8.286793017247482407e-01 -6.898665155519625447e-01 -5.645328045036003273e-01 1.450336188943506521e-01 5.365609216921466418e-01 5.295109891191308593e-01 -6.509291401917601805e-01 9.808063116109824175e-01 -2.533897862676730006e-01
1.467628247637295935e-01 5.410685395711349877e-01 8.727883094416940546e-01 5.391840093888275454e-02 -7.175435491920657549e-01 8.874777397655574107e-02 6.790939338845957129e-01 8.689917929821086018e-01 -9.499971805235270239e-03 -7.163538757556405789e-01 3.045269481776185505e-01 4.053650180380836132e-01 6.827828388938628201e-01 4.175366935920531430e-01 -3.382402086023306720e-01 6.300206371708839681e-01 -1.008684343751767853e-01 2.138090908497222165e-01 9.118511942995108921e-01 4.421455195214580303e-01 -6.579731334614709048e-01 3.807624315995256636e-01 9.943804930021236110e-01 -9.830193319828183229e-01 6.185939439916501303e-01 7.537753279865831713e-02 -4.764313624109364209e-01 5.426465496549168765e-01 7.078965843898330501e-01 8.551358538421300892e-01
3.748995227581999878e-01 -5.174451579446227578e-01 1.369237205872441410e-01 2.278083270256020809e-01 -3.040769698802852639e-01 4.061789891565091848e-01 1.867364022769676390e-01 -4.791251903527900535e-01 3.850555339326077742e-01 -6.445856820106222740e-01 7.188430824515886775e-01 8.413419305924653147e-01 2.535441111438508366e-01 1.867296536295184536e-02 -4.212024835726370896e-03 8.713266688047817121e-01 2.943816820150177427e-02 -2.654374479644938112e-01 -2.559206005819057439e-01 -7.994704972865858128e-01 -1.627569090439654198e-01 -7.216920712989268738e-01 8.526051066412241308e-01 2.374245966344763203e-01 -1.247205473584038632e-01 -9.332161519451829257e-01 4.008574543272921398e-01 4.295503926934567396e-01 1.031718289369214059e+00 5.264517082006080484e-01
4.222030393744924393e-02 -3.554081061753048276e-01 1.299861489645875445e-01 3.701324016845491949e-01 -2.694458124432048129e-01 8.872701252813962325e-02 6.764385392661166341e-01 -3.043430699719001375e-01 -1.985170688431067143e-01 -3.796831444328924721e-01 -1.715800270855414311e-01 2.413524794240264337e-01 -9.329819305863760182e-01 1.187123666997538934e-01 -5.784162805346935166e-01 -5.447763750366180213e-01 -8.312568215765075985e-01 -2.176028760156867303e-01 -5.331133376350195574e-01 8.081248944177921167e-01 -1.094992198344789044e-02 -4.617773029058430678e-01 -7.993064149063334733e-01 -5.900872808693174987e-01 4.192865215640762533e-01 7.597260466215731700e-01 4.725340779495813548e-01 9.903709504160277399e-01 3.032046957617598459e-01 5.751842143736495272e-01
-5.928509878124368360e-01 3.507870545320905531e-02 -2.356608893313001107e-01 -2.216345556155231711e-01 5.497075456866253873e-01 5.496982334240629875e-01 7.895262701992284970e-01 -6.905662867034798591e-01 -6.393781570369591050e-01 2.432788204371451324e-01 8.474167924432055576e-01 1.641490222144354194e-01 9.234489511957713059e-01 -4.105584017630883320e-01 8.924036193984740128e-01 4.010258192990801690e-02 1.448615296715553002e-01 8.487907932244991016e-02 9.064487546961770281e-01 5.710462975564434274e-01 -4.878848656665183414e-01 -2.306043881138668261e-01 8.708030594553063386e-01 5.152486748800109151e-01 1.178742367736120622e+00 2.485744929456375207e-02 4.970732843987290539e-01 7.492927579387226311e-01 2.147688541921165817e-01 4.732800054125332334e-01
-3.835932347993362135e-01 8.115457248632080844e-01 2.161345908020916584e-01 3.235981538035526128e-01 -2.138361628831784711e-01 8.950578335927498186e-01 7.606343630149191570e-01 -2.702932720971248370e-01 4.510616475378039780e-01 -1.302570568668451056e-01 -7.613121357341464668e-01 -1.573178200327372267e-01 1.863148407631790293e-01 8.402817079728532867e-01 1.710178922592061890e-01 1.216098053286770453e-01 -7.027682999753460669e-01 4.843858515877711990e-01 -1.511572468928213397e-01 6.064070300892330234e-01 5.845369130684564540e-01 -7.469788379899200415e-02 5.964960872165951944e-01 -1.022174988265210471e+00 8.292520733146977463e-01 -1.803045254152924048e-01 -9.647295938040117980e-01 -7.665474573057963203e-01 1.009475074476927636e+00 -6.162415811480038697e-01
-1.014217845824714637e+00 1.896821220717409273e-01 -1.882243268679633930e-01 8.873079105369288122e-01 1.485509724725205503e-02 1.804650039971252284e-01 -3.899234155389923462e-01 -8.307630421464795578e-01 6.046627915337172698e-01 -5.544724995177454652e-01 -6.845576129017402200e-01 7.786918118410675049e-01 -7.124909696213572730e-01 4.551718593637330557e-01 2.146878733060209876e-01 -8.778342215588536002e-01 -4.146689292973437801e-01 9.562247028943376970e-01 -5.195609872708661925e-01 -5.515624689504631251e-01 -9.742573502026955490e-01 -5.415656882681184614e-01 -4.873020371217177127e-01 3.894489481194697844e-01 8.149505002989824165e-01 3.137476912848476823e-02 -3.259424324401567485e-01 6.912144961806521160e-01 4.931647945687454571e-01 -1.197024559443027325e-01
-1.888449578570339932e-02 4.103418869082494647e-01 8.395692957728186911e-01 7.727744610503117784e-01 -9.910539736727393967e-01 -1.093124813073200335e-01 -2.428413810242206761e-01 -2.726866210109932798e-01 4.157579288620716351e-01 -5.741602483177981053e-01 5.669450495149335190e-01 -1.046323068127501310e+00 -7.283943128161194380e-01 -6.219481560145204702e-01 6.227595649948742818e-01 -5.468015011286788685e-01 -2.141337168116818901e-01 -2.544542645965663930e-01 -1.302282662365028820e-01 7.025451010808407837e-01 -5.683971166820330767e-01 1.146431975831666117e+00 9.330467042288001500e-02 8.156834048114008917e-01 -4.397191606191748758e-01 4.545214463702574315e-01 -5.544670164424020387e-01 -4.181106631473126001e-01 1.825369188274506560e-01 4.044445215360031876e-01
-9.923377429673870820e-01 6.959447424213481836e-01 -2.148516776550518370e-01 -8.542374384024987721e-01 -6.640272628606996852e-01 3.402869757647925542e-01 -7.549785183394490673e-01 -6.500160422433115537e-01 -9.496963952525781794e-02 3.076918726835510265e-01 6.363188942841399021e-01 1.811178289050943691e-01 4.255082628248757493e-02 -7.783657956914917797e-01 9.329532058476192047e-01 -2.636916032588291214e-01 -2.279368287916032909e-01 4.372385579209194795e-01 4.547327110645808107e-02 -5.996969266810276977e-01 1.908139564036186731e-01 -2.772381721395817955e-01 3.161666938979408314e-01 1.059866308485830633e-01 -9.498295062512471798e-01 1.104006643683824507e+00 -6.248209007782373758e-01 -1.241430811139373203e-01 -7.536042090801156057e-01 1.143057889677210337e+00
-8.598622657603374186e-01 1.326974090230091052e+00 3.047153227872824166e-01 -2.179323363235195765e-01 -7.583435945017428237e-01 -4.517387994552165553e-01 3.189652025963642390e-01 -2.728190233456234126e-01 1.071553771867292726e+00 -8.289389077354069046e-01 -2.743183382465592679e-01 6.231911345221200493e-01 9.310647024308040809e-01 -2.489998657561578455e-01 -7.771168009441871138e-01 -1.031485254013076169e-01 -4.150148909023440025e-01 -4.996153619012855263e-01 2.060215588287151456e-01 5.789476037406509068e-01 -4.513434781076373636e-01 -4.909058142633160871e-01 -3.486355245654866319e-01 -5.440234890457745776e-01 3.140899056458383298e-01 -2.182796244514552397e-01 -1.092279301803075420e+00 -8.185955451559294715e-01 -5.999055341210466352e-01 1.107117606659829390e+00
4.814690130400410828e-01 -7.722625257902296370e-02 -2.168043323552307500e-01 7.443049929048334290e-01 7.613882864780370519e-02 2.589469600199364452e-01 6.613175134800676203e-01 -9.550724308799423135e-01 -2.108605112937395887e-01 -2.920710777669462480e-02 1.054552076793954657e-01 -9.267889666569306684e-01 2.694921869724457020e-01 -1.589442762635772388e-01 7.367864204822505148e-01 2.445796004091463638e-01 3.711756475019590829e-01 1.184691693868946266e-01 1.065236274475615981e-02 -8.208456861386691505e-01 -6.488848209733115713e-01 1.009424454417868322e+00 -1.293406138029352670e-01 6.539394929448609783e-01 4.783744476578952187e-01 7.267054192441660954e-01 3.672340249945938995e-01 7.293627203931464242e-01 6.075649654139403388e-01 8.359634894075663736e-01
-1.024657823941982571e+00 -2.605908569506001915e-01 -2.295176580600915284e-01 3.154696349551218693e-01 5.566540670360314857e-01 2.710970509390984162e-01 -5.401184056201059347e-01 -7.997971675243604750e-01 9.024173874730950784e-01 8.120967938774276140e-01 4.143538753158192978e-01 -1.745306394924827920e-01 2.991297042395835715e-01 -5.802855894855836194e-01 -1.007496273537709097e+00 -4.707072529524570226e-01 -4.441771720507491361e-01 -5.789011831278815245e-01 -2.865773834718857160e-01 -5.279523554166075661e-01 -1.466858254440092310e-02 9.143808842368320589e-01 -1.427064864589629445e-01 2.759759770920974242e-01 6.727048652678295770e-01 1.308922479582480258e-01 -8.815122940222107628e-01 -4.535776291188788889e-01 -9.008021147379808857e-01 -5.503618816726639773e-01
-6.237924602455392487e-01 -3.327292227672395408e-01 -1.634053308310965402e+00 -9.458737476734342398e-01 3.865934238413879509e-01 1.301050298508281931e-02 1.045119684344830269e+00 -1.396968152963397936e+00 -1.811628911941734754e-01 1.088200778764449872e+00 -1.108954972384409876e+00 -4.354498513408717741e-01 -9.273520345162549194e-01 4.103599837166666542e-01 2.332751485088198906e-01 2.438221073638609793e-01 -5.670723926219016775e-01 4.979206280239799332e-02 1.492058169265588277e-02 -3.995701127227704319e-01 4.064871336325972528e-01 1.097831389961900328e+00 7.971746526486973572e-01 1.213718691544222406e+00 -1.139587020566123869e-02 6.679433265678863529e-01 -7.130500713166928461e-01 -7.656164007424477447e-01 -7.388965399782869703e-01 6.564404221376104465e-01
-9.994588355274423019e-01 3.673201971876273730e-01 -1.017704964589823957e+00 3.159342765347399329e-01 -1.105166425987917228e-01 5.470226536903456671e-02 -7.082585006709024578e-01 -6.374407085540029216e-01 7.387442801634986900e-01 -3.939588680346738925e-01 5.259592367916694489e-01 2.628407726490132879e-01 1.517144958274788402e-01 1.785709208689051086e-01 5.691469352864284570e-01 -5.019517325353110015e-01 5.684014702417887754e-01 -4.445936331924502799e-02 4.708441218347703128e-01 7.040559671020431010e-01 -1.106875604738951413e+00 3.051000131342200827e-01 -2.147516701547331208e-01 -1.965101306234575892e-02 -1.035568135408953261e-01 7.728955170686737652e-01 -3.674072522478040170e-01 4.433870642942929763e-01 2.981531997673640411e-01 3.736861899606862547e-01
-5.554627673167571861e-02 2.779274553840845874e-01 -1.566887651500973977e+00 -9.493183167153961266e-01 4.285275774094337020e-01 -8.954066514455190084e-01 -1.961039676552153374e-02 -7.997537200046348493e-01 2.327963099390214785e-01 6.760081361436335312e-01 5.470851730619761266e-01 -7.255140938226790626e-01 -2.287235537750202385e-01 1.276776747536339629e+00 1.974261339879236077e-01 -6.394833665188817684e-02 3.750944570908827935e-01 -4.839774277802148528e-01 9.182488968427637843e-01 -2.703411858482518415e-01 -1.577972446316038349e-02 2.867485018906678063e-01 5.266730385840224793e-01 8.783729131770825482e-01 1.641536337066544782e-01 4.069107927091372701e-01 -1.272143127905249305e+00 -5.228861784197558205e-01 4.662748319708667766e-02 -6.743505273534664557e-01
2.060385796051108706e-02 6.580351391128050897e-01 1.194002822708974954e-01 -7.999413397716521601e-01 4.256731671569297659e-01 -2.792919774556088322e-02 9.154565109779233545e-01 -9.535827376225756158e-01 1.577169583802384700e+00 4.072553415341066407e-01 1.549913307275716245e-01 1.166616862702132273e+00 -1.020404120615923782e+00 -6.021490653118484471e-02 8.140345361440763650e-02 -6.368726812432775608e-01 3.795932301678586196e-01 5.560111299079164571e-01 3.493534940195753835e-01 -2.631435382134553747e-01 2.977828530246616756e-01 1.188394208624781179e+00 -7.946798983448084552e-01 4.224417367848271043e-01 5.217693465878344705e-01 8.188222055459581927e-02 -7.636014244828381869e-01 3.067909367965258594e-01 9.366593791544971515e-01 2.738234314887706689e-02
-4.191971099313986371e-01 1.060324200294905150e+00 -1.110018996796122925e+00 9.710800348539383453e-02 4.444168436881827389e-01 7.449899066984272400e-01 -3.509716422346162989e-01 5.390133341559051328e-01 5.987104435467764940e-01 4.523881291171338304e-01 -5.075024403586709393e-02 -2.182102003777194599e-01 -9.244246859467775135e-01 1.266761909632556013e-02 -9.774284393525882741e-01 -9.883433332923201586e-01 -3.093182539567734257e-01 3.587834465609205381e-01 -4.384052746907038389e-01 -9.425881385746555097e-01 -1.402720047495352729e-01 8.003703428977874124e-01 2.613390374339021882e-01 -4.414667724580456643e-02 6.878828176964426611e-01 -1.483863288466228392e-01 -9.503209148819162788e-01 5.058124176183983467e-01 3.064902303777110593e-01 6.808776099277045191e-01
1.388976279270099923e+00 -3.960796358865999456e-01 -1.414998383126001125e+00 7.785568986323260221e-01 -9.906673976416111582e-01 -1.163812227004996425e+00 -4.733436133556389591e-01 1.307214686933299286e-01 1.107115041415152740e-01 9.841781533245762548e-01 -2.515815312869139064e-01 9.272283510077758972e-01 3.090615001486146651e-01 9.909434199418211131e-01 -4.745120299145899057e-01 1.486107860373846179e-01 -6.047423912636250981e-02 -4.360236960566828412e-01 1.196928770377573975e-01 2.941906532637952321e-01 1.117280800838406529e+00 5.432509336914633780e-01 -1.820549397681786030e-01 -6.337667069649748353e-01 5.286977039144285379e-02 -8.132105203315795894e-01 -7.083240322009145551e-01 5.778777285582873402e-01 6.179620558984263434e-01 -5.100223145073136122e-01
9.809383957341749616e-01 1.087393446111680900e-01 -2.981125347337026943e-01 -4.388118717707316652e-01 1.296720762365768942e-01 3.911489890223052157e-01 -5.603549326088042015e-01 -7.803744141394179934e-01 6.426752595457844164e-01 9.104546231593731997e-01 -2.744131836073369080e-01 -6.191465194653889004e-01 2.360125588422371801e-01 -2.252558035806031256e-01 1.001828128276951863e-01 4.377356987946263156e-01 1.141353832045377326e+00 6.807167983417511392e-01 -8.731805024034688945e-01 8.184420354805265196e-01 6.358303514293806025e-01 7.015142522740694941e-01 3.394048876635657325e-02 -1.215650750061364693e+00 -3.260231380646173016e-01 7.002972598202117371e-01 -6.224416892312674143e-01 7.379149959650883883e-02 1.457659219214904933e+00 6.913338861374574984e-01
8.133463616932075091e-01 3.472982430790023944e-02 -9.899061586200875729e-01 -1.073933004570972738e+00 -1.227489264993034679e-01 -1.008989763801870332e+00 -1.369282056367225053e-01 -2.714859248101780809e-01 7.484885889980920082e-01 -4.854412410703091707e-01 9.008196657369328397e-01 -7.894918292222180556e-01 3.301583359549590257e-01 -4.013346123320311043e-01 -9.508909326043407662e-01 -2.077248376158987719e-01 2.353002266976667034e-01 7.868149043742750370e-01 -5.989901171035157124e-02 -9.815265538291618741e-01 -1.750087663834403173e-01 2.594478278071153943e-01 1.771324534913154281e-01 -1.079573136733816163e+00 1.995360047875639198e-01 -6.954728618021285280e-01 -9.816980369634090708e-01 -6.183350907306097710e-01 4.282778649207333865e-01 -3.745969473972173697e-02
8.681752804828707371e-01 -3.750971273510482762e-01 8.687887737774671604e-02 -4.215231317216073248e-01 -7.935094795204745699e-01 -7.402548345192099255e-01 -9.513183496717900756e-01 -7.980360438449404237e-01 3.623247193644670294e-01 -5.212691738791981333e-01 2.291455518210623044e-01 -2.815067018342623517e-01 5.323739001208757093e-01 1.512086833919386308e-01 8.404312395717387918e-02 9.569048098157877380e-01 1.218821591142914995e+00 3.761749700034518196e-02 -1.697913471725092660e-01 -4.937592195567989117e-01 4.055894809277569846e-01 -3.457029655807741242e-01 -1.133972880988414755e-01 -3.785572608181492216e-02 -4.095359834090312456e-01 7.582705318600823086e-01 9.941838091918801801e-02 4.208067646004755025e-01 -4.145632212382394099e-01 8.794794161514456476e-01
8.933877351328334271e-01 4.455153844401309460e-01 5.228256278664208390e-01 4.159126027935067249e-01 -9.884963595999374242e-01 -7.845531108751432336e-01 -8.988886401737143927e-01 5.481796691739367899e-01 1.485773016473747599e-01 8.403354240842740852e-01 -5.432494571590681942e-02 2.854997754716726566e-01 -8.924687563289429582e-01 -3.929720665884137154e-01 9.181703796801576889e-01 7.353240916620437106e-01 -6.766014365857930812e-01 7.385050733633877762e-01 7.299831787278554529e-01 6.864947953709941153e-01 7.332553122127700718e-01 -1.507517417216822087e-01 1.397417443435401696e-01 -4.122440843281733880e-01 -5.350556321116834990e-01 2.474852574195794408e-01 3.817123062443603665e-01 2.978988190730513796e-01 -3.217744981811610505e-01 -5.781669887285300069e-01
7.302525025347632592e-01 1.522575394853561276e-03 1.222576392345257890e-02 3.314139688065131928e-01 -5.980540775785192498e-01 4.805294704031343178e-01 -2.851673367871001563e-01 -4.386147201178920707e-03 3.768586875345013472e-03 -8.624972906011995066e-01 8.586677461824083757e-01 -3.432692598780547888e-01 1.937972337809411583e-01 -7.152879258826823072e-01 -7.012308065337166108e-01 5.896939233710021266e-01 3.117228453499715224e-01 5.697312694144934797e-01 -7.005686808454243408e-01 2.695424863008051286e-01 -4.821444121965066110e-01 1.176285837169627424e+00 3.302001936081227496e-01 -5.328281459063016756e-01 6.637008212076187519e-01 3.921837050205496944e-02 -1.165523199175835939e-01 9.252567390864390173e-01 4.293007348385550759e-01 -2.095555903141201881e-01
-7.334654419628900968e-01 -2.922591747225408154e-01 -1.021724419700811071e+00 6.634319998929082418e-01 -5.400758560175418221e-01 -2.016294840928725962e-01 -1.266159056287080031e-01 1.414877902502443829e-01 -5.085488779944599136e-01 -2.136542766101206248e-01 2.026867413172112609e-01 -2.894476586571662624e-01 7.633036839442952637e-02 -6.830799247109203831e-01 -9.242778481483934216e-01 1.059322625831057740e+00 -8.985686429537408093e-02 8.901837379888727364e-01 -4.762917904594692331e-01 7.384156264929153668e-01 -5.955929602597583861e-01 1.100781782047117741e+00 -3.176033123879890008e-02 -9.454403669539218624e-01 -5.400139928219922503e-01 -6.027213167980269293e-02 3.335593322418608508e-01 -2.775599871376875361e-01 -1.645225873828437546e-01 -4.178535439250440769e-02
3.921475748518646887e-01 -8.031328759858437083e-01 2.562841437560614000e-01 -4.197662815779754641e-01 -6.351929631628553397e-01 3.914296265935665597e-02 9.904706213984552921e-02 8.663228809591684287e-01 -8.048275087244710635e-01 2.504289617779254982e-04 7.404635140936435267e-01 -5.709174241525342142e-01 -5.036314510760966368e-01 -7.253246732824939480e-01 9.505572384839315880e-01 -1.455139162848576029e-01 4.115787949070329743e-01 -5.883414258920441897e-01 -6.000742574391965123e-01 -3.357404690166805872e-01 4.797465700039230119e-01 7.809488351206734791e-01 -4.238311576170519790e-01 -6.393161474480789364e-02 -6.659113907650067166e-01 1.013643842239311477e+00 -4.969483455039780950e-01 7.250402367623848265e-01 3.564135733815956275e-01 4.099056834089917500e-01
-2.660764649213661071e-01 7.745642040741589351e-01 -1.312407844123711087e-01 -4.497671490104800107e-02 2.183440305625290734e-01 -9.761781358702341371e-02 4.264332803688621887e-01 1.342386559397288903e-01 -3.073375329489962948e-01 1.076612175996359388e+00 4.092601062114237798e-01 -7.679621850500143454e-01 -9.773259214760139368e-01 -5.006527311156434568e-01 3.413856941422804270e-01 5.684530126661567762e-01 2.994303674438140161e-01 8.121096079235657905e-01 4.676452204974701488e-02 -9.232705411587673883e-01 -9.461161087821011728e-01 -5.843089752989572006e-01 -4.995557585541998691e-02 8.820031411097603580e-02 1.492744371850931728e-01 -1.974650818958293697e-01 7.471645318104888078e-01 -2.374261094195967703e-01 1.078678104465975229e+00 7.716622779829149792e-01
6.158806286880968983e-01 3.388064543674538798e-01 5.008925181218069067e-01 -8.507033721625224532e-01 -5.409488246858200622e-01 -4.166028651865452681e-01 -6.131502335363762102e-01 -2.771407979414102773e-01 -5.082474036645003856e-01 3.814198275578460362e-01 1.027065338707789932e+00 8.644742477289203419e-01 -3.226841922561215492e-01 7.083919327126887364e-03 3.842526070981974740e-02 -8.843439463193795147e-01 7.805589199601106198e-01 -9.283847587090522380e-01 -2.372688263830252664e-01 -7.290154688748791134e-01 -2.693310261822920958e-03 9.674213388169652372e-01 3.066803024258636934e-01 7.092857898592362931e-01 -3.671650561255693224e-01 -2.690680318995394837e-02 -1.876405786988614155e-01 4.474526938179563817e-01 1.287437773994914159e-01 -9.217803425041795062e-01
7.497877410605193749e-01 -3.271600446088816505e-01 -6.305204440115022568e-02 7.349496048090838896e-01 8.568714621125158581e-01 8.928781128227928354e-01 -1.933687475730394012e-01 4.564881101177969414e-01 -8.180803117509550804e-01 -6.471295775452950982e-01 5.418313239123058178e-01 -7.282831311214897907e-01 -7.861608320789758436e-03 5.245387091405026014e-01 6.429303365375294010e-01 4.722425920929402832e-01 -3.405056914531153778e-01 -6.069998275695117629e-01 -9.002733453004848618e-01 2.612440222720210925e-01 -2.559111255593140566e-01 -7.388202242361252559e-01 -7.727685196929361400e-01 -5.712198626258190304e-01 -4.167711684471073763e-01 -5.080383622636903684e-01 2.780079681503948019e-01 -1.145349475140615136e-01 -2.893431313938675878e-02 -6.946073935252725651e-01
-8.901342015431161769e-01 -6.530472162739721087e-01 -9.022889937470422728e-02 4.490726380187453071e-01 2.900436238036012762e-02 -7.809417169494442534e-01 1.877412401680719767e-01 7.370285760112477158e-01 9.846433725396385173e-01 2.434961800589071912e-01 4.290177913846265345e-01 -3.808898054772847375e-01 -7.747378117806755782e-01 3.677078268181718790e-02 1.169881550146419924e-01 -4.883338329707752612e-01 -7.079559237515766768e-01 -2.547333490513072340e-01 7.866889170485896754e-01 5.805136855406349827e-01 6.840192867442319580e-01 -6.847137128036182574e-01 5.289952455150011001e-01 1.896055732430410312e-01 7.830312533419818699e-01 2.548111013503092104e-01 6.152818250356170138e-01 -2.100394769482891444e-01 -2.059248125641951199e-01 -5.000405401728668098e-01
-1.191636322106281835e-02 4.313726154289703740e-01 -1.075205421585865156e-01 -2.197685074220342982e-01 -1.068789013512943642e+00 -6.777091606822919223e-01 8.877348754717026003e-01 2.095446875024594702e-01 -9.974316359870598336e-02 9.400682590952466056e-01 1.027794214071352963e+00 -8.554315422035395633e-01 -9.111958413295193626e-01 -1.072522877629943139e+00 7.888354331161732125e-01 -7.538622733481014082e-01 1.994443500820773929e-01 5.042235689415750510e-01 -9.596511077977245563e-01 -2.309238812416052333e-01 9.649441848578027212e-03 1.024445917456263011e+00 1.069815496508582653e+00 -4.712860126385541304e-01 -1.661681176576616237e-01 8.849280269453270176e-01 7.699638040230968317e-01 5.014581489718171747e-01 -3.409403627627314859e-01 -2.809365705185329909e-01
4.349224438109689644e-02 -6.123690804818036071e-01 -8.371571800937406271e-01 -3.337802992201587826e-01 8.929410228208237710e-01 4.037971435782046203e-01 -7.064746155348952117e-01 2.284687998540598231e-01 9.059075794983045826e-01 9.842928058359412535e-01 4.843060450082399548e-02 -4.592944534024595016e-01 2.023868483933734530e-01 -9.688268218990627734e-01 -6.806139195670629638e-01 -4.345240193774172477e-01 9.895731578674271667e-02 -1.041227099294557812e+00 -1.199628360569837821e-01 -1.093627404481286147e+00 -2.111044137071236837e-01 -3.297283950177617995e-01 2.365691902358870169e-01 -1.027619355572227056e+00 6.416807936903481391e-01 1.175087079908173210e-01 -6.357887617371166256e-01 9.854725504253023516e-01 5.636280368301316290e-01 4.142023556173330956e-01
-7.920256203855575716e-01 -8.535283371102061478e-01 2.979197379530724166e-01 1.986710505938006077e-01 3.463137529424372696e-01 -6.744211193122935655e-02 1.274093289281103270e-01 8.094603209159995094e-01 -5.190377210236281069e-01 7.641339979723491549e-01 1.513726489785477414e-01 7.950976215115603818e-01 5.600493910374466644e-01 3.807035233328942558e-01 -4.404073932072906650e-01 -6.153782276104918791e-01 1.337880882466939425e-01 -1.093340811105534133e-01 3.160362382064404452e-01 -4.805178084776831060e-01 -1.139253519994671976e-01 2.284900824294698249e-02 2.865269204804921088e-01 -8.288204053658104753e-02 -8.962258924475492716e-02 -4.968561374231010297e-01 -8.282940891128379723e-01 -4.857450865675174145e-01 8.885031102553306859e-01 7.913030250203840765e-01
-5.642165916589203523e-01 -2.365714253295601033e-01 8.851699010159999048e-01 3.026255110120273928e-01 2.169035859848278402e-01 -1.993492991388340907e-01 -6.194326584875717856e-01 -5.348905217104504839e-01 -6.605454160845906919e-02 -5.966656266699116307e-02 8.178753469086540440e-01 -5.454073192655634061e-01 -6.581894112374465644e-01 -1.031679236707671476e+00 -9.086077062431753282e-01 -4.409951541051906898e-01 -6.377923500046611682e-01 5.591588765094657187e-01 4.311032521006083473e-01 4.191888146017246353e-01 2.651381575404824220e-01 3.866423729094510264e-01 -5.071245603035701155e-01 3.507052508980935124e-01 3.891481389542753577e-01 -8.022567085109066909e-01 2.387723250524401153e-01 7.754190551654663310e-02 1.693680033844726165e-02 -8.713958035222122422e-01
-1.022987167735726510e+00 1.623209174036014391e-01 1.806626956385497806e-01 7.701971818020129090e-01 -6.584714593887559531e-01 8.910411054447250345e-01 -3.679440039512945626e-01 -5.761257008901414789e-01 6.867017080893075276e-01 -6.200171173092264842e-01 1.082720832293952773e+00 1.017510281052332877e+00 3.125225850663432836e-01 -3.549320566182251335e-01 1.172137536838707833e-01 9.359858324994801970e-01 6.489289416694630219e-01 4.774004468829579073e-01 -6.424109810594412773e-01 -6.577315009359158138e-02 4.149754266080823428e-01 7.194765885496670621e-02 1.142715883484758610e+00 -3.423327568025004153e-01 1.480016427733385487e-01 1.971543946607168529e-01 -5.869739858355952355e-01 -4.936359535515652541e-01 3.861454300172247889e-01 -1.576591741412568248e-01
6.413281783767137423e-01 -7.794479006675369970e-01 5.370022550136409611e-01 -5.163508018691616019e-01 -3.740950822817719623e-01 -5.920955142335103671e-01 -7.160195093057882820e-01 3.059517344307339792e-01 -3.701377377225407717e-01 4.136605376525560873e-02 -6.098017758414479017e-01 -4.440938039978798435e-01 -7.133226003901769197e-01 -2.523745942768786943e-01 -1.345690551852369299e-01 3.843261446020621724e-02 -1.709989093190786014e-01 -6.208128660485742190e-01 -7.077998019603948254e-01 4.815239170446830586e-01 -8.477985896525673803e-01 -8.936013862954954590e-01 -5.731385859075522476e-02 -3.823929208654389122e-02 4.157007334158625000e-01 -2.743192296312523260e-01 -6.916034555204088052e-01 3.127914207005058067e-01 -3.662260638424763570e-01 -7.618994815084717542e-01
-7.284379267683562809e-01 1.051471012337447553e+00 -1.205909781677918291e+00 -8.482649212190881416e-01 -2.457558875235597573e-01 -5.668091925194116421e-01 7.058842700106693346e-01 -6.523823158354454810e-01 -3.895668864563671674e-01 3.643372976109110484e-01 6.205458296019976672e-01 5.005137686052986146e-01 7.109228098182603928e-01 -1.301607713603394022e-02 -8.807198774863034263e-01 -1.133170557556072877e+00 7.275523162356102302e-01 -7.995828761318931610e-01 1.741838974969783516e-01 6.093741148357998405e-01 3.453481274423119696e-01 8.953128440127730014e-01 1.201993675561255248e+00 4.514937213270818761e-01 4.037498981449609836e-01 1.907572642352987069e-01 -3.172820955478509175e-01 -3.860233214597598717e-01 -3.826251461404032161e-01 -3.269167158042340371e-01
-2.270026166465704820e-01 -7.992950309296117384e-01 -1.100826036956428666e+00 -5.207741119570540311e-01 5.685407996770844852e-01 1.811968612619973829e-01 8.567165796122077071e-01 -1.274956678419661982e-01 -1.371395932103894599e-01 8.015383789133462278e-01 -6.808373460323077220e-01 2.199544957347950858e-01 -2.667247989175933198e-01 1.289458717463524418e-01 -4.646395921991035571e-01 1.301887186065194268e-01 -3.618279017541686238e-01 7.193189930191697945e-01 -3.853066116611786329e-01 -8.715105177244036883e-01 -8.388935709268451335e-01 1.645128888336042927e-01 -2.046925585209120879e-01 6.266951016549243692e-01 6.272228922436869913e-01 -4.459630565666286572e-01 -5.215396272803304312e-01 -5.051535262249022828e-01 -5.645599510874135252e-01 9.934882017055589928e-04
2.279665430280265054e-02 -1.508491155269882922e-01 -7.820109317552579320e-01 -6.247337732785851472e-01 3.264765847205843841e-01 -1.129554173355566543e-01 1.130779213217066037e-01 2.420860369642404974e-01 5.786248251991079616e-01 -8.576291597392134980e-01 -1.146960125958081500e+00 -3.558918311956135727e-01 -7.000840131261585331e-01 8.627288838685076566e-02 -9.336698333479250822e-01 -1.289756098471014079e-01 4.445251198872089970e-01 -2.878549131084645607e-01 -1.261954062560240175e-01 -6.821644958955869198e-01 -1.486076567016490380e+00 -2.059435121241106892e-01 1.281847741366385351e+00 4.973248309492391273e-01 6.643486232854860507e-01 8.321343808388501073e-02 -2.752434640794182430e-01 7.218463348283921110e-01 -9.796575039049941758e-01 -5.518229506027514386e-01
2.464899481097959089e-01 -6.934528801318726732e-01 -9.738487426296852378e-01 3.047235714457649514e-01 -1.460108710637345562e-02 1.044597484472421095e-01 6.991552325079181118e-01 -1.092990387357098969e+00 1.376352414211965192e+00 6.692194526506911600e-01 3.715166604920348559e-01 -1.000649733876290831e-01 -4.411237040408518273e-01 -4.348384151282744248e-01 -1.481395816349160843e-01 -5.990937684215869724e-02 2.142429574408809267e-01 5.006810016140467168e-01 -8.544750105703289300e-01 -1.718312866928435600e-01 -9.855515656376576672e-01 -9.952953241133474238e-01 1.185851238311944389e+00 -2.461003545362725198e-01 4.849496024739822775e-01 -6.284839912688395813e-01 -1.338526144947195462e+00 9.616278571229031069e-01 -5.804428570870089343e-01 -8.230440564647069079e-01
-1.014601671649913328e+00 5.167117375960662840e-02 -1.282253129079187204e+00 -6.752400665433616611e-01 -9.061766069472150520e-02 -3.424371216167230170e-01 -7.224216474786006037e-01 -1.023652620469684082e+00 1.740812765275622787e-01 2.362215011698879930e-01 -2.332772251672566854e-01 7.994242958732370452e-01 -1.374577279639027649e-01 4.714902795175451855e-01 -3.061246444592481963e-01 -3.052472297805464488e-02 1.109754859150662298e+00 -9.353428780670521858e-01 -1.864543445333497196e-01 -3.570597261575220172e-01 -1.734758175909575373e+00 2.557447519605546837e-01 -4.231975107468013975e-01 6.916806009975858816e-01 6.209986143386156954e-01 1.181753243463455894e-01 -1.157726166696665393e+00 1.669579338542325209e-01 -1.163212211212755198e+00 -9.333327075873200096e-01
2.030973578700269733e-01 3.223784257065540615e-01 8.339258208374152048e-02 -8.890815314449329598e-01 -3.316169336212693164e-01 6.643036518618634645e-01 2.567716831145432366e-01 -1.505860776378525445e+00 -2.124851861882198212e-01 9.103422738743881248e-02 -6.769846891786852616e-01 -1.101220040949927627e-02 -4.454639865674890342e-01 4.992673318095642854e-01 -2.739338044127345717e-01 -3.023145191496101614e-01 -1.853070329585865539e-01 -5.738392532800844492e-01 9.829698986140203987e-01 -2.423188341354787223e-01 -5.453363437997177376e-01 4.195059274688978102e-01 6.530793224220839965e-01 7.965311343841131597e-01 -9.179058853520848382e-01 5.581658968055379644e-01 -1.132904950777221531e+00 -1.808864877416695438e-01 -1.306824485930255131e+00 4.420998509288865397e-01
-4.508454194750964872e-01 1.020930567146636880e+00 2.250136833471469977e-01 3.298029445300963980e-01 -5.842990869012131688e-02 -1.473016332855710264e-01 -5.493309470339476919e-01 -5.549868743194006360e-01 6.253895045217527926e-02 -4.317472693144029927e-01 -1.409101968272378436e+00 8.469171618698570839e-03 -9.544156560003590473e-01 -5.640036853977355991e-01 7.695447753945180817e-03 -1.476511241701511552e-02 6.777106988228318585e-01 -1.479474123737263502e+00 2.095145123354146821e-01 -5.280468131573846646e-01 -4.350051225625981011e-01 -1.108867426422823543e+00 2.403178629979448311e-01 7.774661352451086582e-01 3.051351976527115761e-01 2.327912051863603171e-01 -1.859783406054373589e-01 1.079523320253343854e+00 -7.330936555559407486e-01 1.484857925664229694e-01
-1.339512104442614371e+00 9.757195517209736879e-01 -2.810267336586538475e-02 7.967072283638525487e-01 -7.665602707313611264e-01 3.099799208196486466e-01 -1.828676624652869065e-01 -2.547308735546482961e-01 1.251255496017439628e-01 -2.019178765518889473e-01 -9.995952482486659685e-01 3.832628868112324394e-01 -4.982540335231276374e-01 8.997923409375375714e-01 -9.685464445676147394e-01 1.026289148723269262e+00 7.202351295480436955e-01 5.025194833235528957e-01 1.031412167131473545e+00 -2.626968239213750000e-01 -2.436565508460312446e-01 -8.483453350088647482e-02 -4.279591910626353093e-03 1.223081827656503195e+00 -5.210615487484482333e-01 2.838729906466620490e-01 4.957670620521462679e-01 3.292161854156666623e-01 1.913946028032073865e-01 -6.591060494629765731e-01
-7.659373679610359531e-01 -2.681359435539279468e-01 -7.272138847342187740e-01 -4.129284813727236436e-01 -2.224525353861120380e-01 -4.106163915632939920e-01 1.146330417727218887e+00 -4.140821424327190692e-01 1.497900805743493713e+00 1.052583114878128528e-01 -2.432452336200446319e-01 -1.226837755004291652e-01 1.643982705697129010e-01 5.966982936212975597e-01 2.996817144182458148e-01 5.714513825781222245e-01 -6.199424328591351951e-01 -4.538602403548902542e-01 -1.010333781804771125e-01 -4.976517445755190283e-01 -5.089839668796339867e-01 -4.573267693367184805e-02 7.343319969186984375e-01 -3.925334349898673691e-01 2.091806029388454113e-01 -5.915593456842541675e-01 2.770076930538594162e-01 1.173279582838964163e+00 -3.597712411310066138e-01 7.885900308940861914e-01
-1.657667081311618162e-01 1.132917861267994097e-01 -1.259397353485504745e+00 1.111612437719537716e-01 9.377129044463164975e-01 6.722704305994710028e-01 -3.280499549745235499e-01 -9.670590366072072674e-01 1.625576844413467947e+00 -4.020164023831722666e-01 -5.768053110654551840e-01 -8.335497449964827943e-02 -1.168469156683907828e+00 -3.112405270867550922e-01 -3.038200723531783165e-01 -4.900738820613551594e-01 -4.782081685584645969e-01 5.471351993237377753e-02 -7.450722490979270196e-01 -1.361046608363999932e-01 2.105084309216072591e-01 5.581914362055951928e-01 5.481033438301307070e-01 2.757312381273812063e-01 7.537207951000255424e-01 5.709452338270422089e-01 8.133166073605976321e-01 4.351560337296740966e-01 8.628443194930494886e-02 2.606918747330404934e-02
